\data\
ngram 1=42143
ngram 2=1

\1-grams:
-5.6179276	<unk>
0	<s>
-1.2745063	</s>
-1.3259315	,
-2.775739	eller
-4.147695	bare
-2.0025198	er
-3.4759173	navnet
-2.006163	på
-4.741247	frø
-1.8345761	af
-4.582467	planten
-1.3194481	.
-2.0384288	den
-4.1571913	voksede
-5.0321927	vildt
-1.553484	i
-5.1836705	mellemamerika
-2.6951864	men
-2.222571	blev
-3.8660276	taget
-3.4154718	ind
-1.979302	til
-5.038788	dyrkning
-2.8300064	flere
-3.9445596	oprindelige
-3.8890157	folk
-2.1353707	:
-3.4073703	bl.a.
-1.6574703	og
-5.434486	aztekerne
-5.0722485	frøene
-2.414029	har
-2.3363662	et
-4.2087417	højt
-4.4414554	indhold
-3.6492996	især
-2.2160654	de
-5.17941	omega
-3.4798512	derfor
-4.420276	betragtes
-2.0908601	som
-1.9241886	en
-4.22854	slags
-2.2714942	``
-2.2811778	''
-4.0806317	cirka
-3.7171035	f.kr.
-3.5529177	begyndte
-2.9608912	man
-2.0554624	at
-4.0958686	bruge
-3.062607	del
-4.9796214	befolkningens
-2.1833537	det
-3.8041067	område
-2.2200882	der
-5.191592	dækkes
-3.8316107	nuværende
-4.2591896	mexico
-5.1049175	guatemala
-2.7848608	hvor
-1.7703655	(
-1.7696655	)
-2.2328172	var
-5.1553564	vildtvoksende
-3.2048535	sammen
-2.123571	med
-4.8754215	dyrket
-4.6595225	variant
-5.1507015	ssp
-5.207882	majs
-5.389823	mays
-5.305623	vulgaris
-2.8762443	da
-5.093173	spanierne
-3.8652384	nåede
-4.957872	forbød
-5.034211	egnen
-3.914554	langs
-4.8636513	bredden
-3.2000473	dog
-3.7355745	endnu
-3.3516982	dag
-4.5701313	hjemsted
-2.1067348	for
-3.9056602	indeholder
-4.9327326	masser
-4.9769535	protein
-5.323959	vitaminer
-4.9800677	mineraler
-3.2030292	op
-2.9766307	mod
-3.9578032	40
-3.3940442	%
-3.3720798	findes
-2.6991014	også
-5.3410473	magnesium
-4.6893396	jern
-5.212433	zink
-3.5217655	desuden
-5.169628	vitamin
-3.1638713	a
-4.204005	henholdsvis
-5.3818665	påstås
-3.076996	andre
-5.4434776	fedtstoffer
-4.796978	indholdet
-3.3658154	her
-3.4336755	mest
-4.9044437	værdifulde
-4.792316	egenskab
-4.3643594	betydelig
-4.6843386	andel
-5.3249454	kulhydrater
-4.014841	hvoraf
-4.3979726	størstedelen
-3.1991367	kun
-3.3504286	3
-3.7845435	næsten
-3.4135292	uden
-4.7593994	smag
-2.8178911	kan
-5.4231915	tilsætte
-3.3909395	dem
-4.338225	enhver
-4.426223	mad
-5.216262	anbefaler
-3.4447284	ofte
-5.444778	grød
-5.4579954	yoghurt
-4.0419884	lave
-2.4482737	–
-4.3968053	eftersom
-5.3259344	rigeligt
-5.2263784	fibre
-4.2109394	sker
-2.4976444	ved
-4.590404	lægge
-5.0960793	blød
-3.977414	vand
-4.9424505	mælk
-3.34023	anden
-4.9707904	væske
-3.8236575	giver
-3.6651165	følgende
-4.7325745	positive
-5.121913	virkninger
-5.4513364	helbredet
-5.447389	vægttab
-3.5100045	mindre
-4.7634478	forbedret
-5.239974	forebyggelse
-4.8541923	tilstrækkeligt
-5.2548485	forsyning
-5.0449657	forhøjet
-4.7561874	færre
-5.279939	uønskede
-4.8420005	negative
-5.191592	bivirkninger
-4.190966	derimod
-3.1342132	være
-5.056525	farligt
-4.7694545	lavt
-5.3369656	blodtryk
-4.1051784	særligt
-3.0638561	hos
-3.9385526	ældre
-4.664244	blod
-4.9051943	kræft
-3.7080827	form
-4.5443296	øget
-4.761554	risiko
-4.3198757	forskning
-2.5955043	om
-4.4737635	forholdsvis
-4.386325	begrænset
-4.3956413	ført
-5.2391624	anbefalinger
-5.0222383	begrænsninger
-4.973861	anvendelsen
-3.720357	f.eks.
-4.7545905	tillader
-4.329652	eu
-4.298629	indgår
-5.030184	maksimalt
-3.6062431	10
-5.0783644	kommercielt
-4.5233946	fremstilling
-4.2750134	brød
-3.3520975	skal
-5.156696	anbefales
-5.12006	maksimal
-4.664676	daglig
-5.4396014	indtag
-3.8389046	15
-4.2213984	g
-4.6050296	juan
-4.681186	manuel
-5.1593866	garcía
-5.4014482	andrade
-3.665744	la
-4.899223	cruz
-5.1865344	torres
-4.705408	las
-5.4073796	méxico
-4.1541805	spansk
-5.4553194	seeds
-5.259922	y.
-4.3486366	l.
-5.3180842	martínez
-5.0470448	carmen
-4.073597	m.
-5.217803	bernd
-5.4539876	mabel
-4.012525	c.
-2.7417583	of
-5.4073796	seed
-3.3856583	by
-3.039326	and
-4.2477098	journal
-4.8747206	food
-5.3493276	composition
-4.885001	analysis
-3.2791047	2011
-4.099204	24
-3.1276655	2
-3.4406343	side
-4.3865523	korte
-4.44262	avis
-2.2864385	fra
-5.138956	maden
-4.491808	how
-5.01347	much
-3.961082	per
-4.3315535	day
-2.7155619	engelsk
-4.3187056	official
-2.5480957	the
-4.213531	european
-4.190676	union
-3.9961877	an
-5.344134	extension
-4.8472304	use
-4.052201	as
-5.234324	novel
-2.8471622	under
-5.3818665	regulation
-5.354584	ec
-3.9938307	no
-5.191592	parliament
-4.702335	council
-5.196709	mer
-3.4380116	svensk
-2.7438579	-
-4.3729906	or
-3.4785688	?
-5.060806	grundig
-4.9983068	gennemgang
-4.9712276	facts
-5.3259344	bettina
-4.3911304	super
-5.290761	gut
-3.493179	tysk
-4.828879	sammenligning
-5.101361	nødder
-5.4244323	forbrugerrådet
-5.3210115	tænk
-4.3009596	egentlig
-5.11212	sunde
-4.6232953	virkning
-4.508971	voksne
-3.8884368	kvinder
-4.439908	dig
-3.4987154	inden
-3.6427402	du
-4.92835	fylder
-5.406187	absorberer
-4.2851706	27
-3.6107414	gange
-3.0975354	deres
-3.855008	egen
-4.3676167	vægt
-5.049134	cole
-5.3785005	salat
-4.0474815	primært
-3.6794927	består
-5.4396014	hakket
-4.9486365	rå
-5.1829576	tilsat
-4.6090016	revet
-3.1555386	mange
-4.86331	variationer
-5.4269238	opskriften
-5.234324	råvarer
-5.2990584	æble
-5.0978327	grøntsager
-5.1865344	blandes
-4.0025363	normalt
-4.2558064	bestående
-4.585696	olie
-3.7539632	fleste
-3.8729157	moderne
-4.251781	former
-3.355688	forskellige
-4.650231	regionale
-5.4553194	sennep
-5.4269238	iblandet
-3.732685	får
-4.276425	regel
-3.9703703	lov
-4.3714485	trække
-4.048735	adskillige
-4.2790837	timer
-3.4306028	før
-4.4583154	retten
-5.1526904	serveres
-4.0522532	enten
-4.9805145	skåret
-3.8475063	små
-5.1851	tilbehør
-5.051233	fish
-5.3796196	chips
-4.785131	retter
-3.8727412	sydlige
-3.4155812	usa
-4.1812077	specielt
-5.3642097	stegt
-5.4396014	malle
-3.126119	dette
-4.093485	almindelig
-3.930551	fx
-5.1300354	chili
-4.838441	varm
-4.419661	formentlig
-3.6444068	allerede
-5.137029	spist
-3.582885	gamle
-5.337982	romere
-5.145442	tidligst
-4.648771	opstået
-3.6784213	18.
-3.648612	århundrede
-4.741505	opfundet
-3.4221797	”
-5.051233	bredte
-2.7409825	sig
-4.46128	delvis
-4.4172106	oversættelse
-4.685697	nederlandsk
-3.5817592	kort
-3.53853	udgave
-5.444778	kool
-3.900499	betyder
-4.054103	kaldt
-4.8771796	cold
-4.962564	kold
-3.6885033	england
-3.4940386	frem
-3.4339294	ca.
-4.463177	1860
-5.438317	genindførte
-4.540743	udtrykket
-4.093195	altså
-3.1736135	kunne
-4.8339524	betyde
-5.418265	kål
-4.204603	latin
-4.8775325	odder
-3.7280865	station
-5.438317	letbanestation
-3.1651208	tidligere
-4.645865	jernbanestation
-5.42943	odderbanen
-3.1046154	danmark
-4.7891397	stationsbygningen
-4.2888827	tegnet
-4.8839264	endestation
-2.9125443	år
-5.367466	jernbaneknudepunkt
-4.446262	jernbane
-3.451696	gik
-3.7627265	aarhus
-5.141539	hovedbanegård
-3.8145037	via
-5.225592	hov
-4.360697	indviet
-3.6742058	19.
-3.2336528	juni
-4.4242315	1884
-3.6936448	14.
-3.2149193	maj
-4.296588	1904
-3.0557866	så
-3.0086374	denne
-4.4471774	bane
-4.229332	nedlagt
-3.8817983	31.
-3.235474	marts
-4.019559	1967
-3.7105484	21.
-3.9902046	1977
-3.6708627	dermed
-4.8842845	arealet
-3.0700686	mellem
-4.120392	stationen
-3.7208483	bygget
-3.912906	nyt
-3.3791516	både
-3.558261	tog
-4.7409897	busser
-3.7897556	brug
-3.9669776	1981
-3.9873345	kommunen
-4.0235877	overtog
-3.6144197	nord
-5.3979278	å.
-3.2169178	siden
-3.317154	2008
-4.469057	drevet
-5.29999	midtjyske
-4.6668415	jernbaner
-3.6588695	9.
-3.2643523	december
-3.2939434	2012
-4.1751475	slået
-5.3751607	grenaabanen
-5.4539876	nærbane
-4.409221	dsb
-4.2819376	kørte
-3.3572495	nye
-4.9507184	grenaa
-4.936755	skift
-4.005935	h.
-4.9351416	togene
-5.2531705	vedligeholdt
-3.0497317	's
-4.933133	værksted
-4.5451493	ombygget
-3.3788943	2016
-4.481911	lukkede
-4.0265594	samlede
-4.772213	ombygning
-4.8397317	letbane
-4.9120126	forventet
-5.228747	genåbnet
-3.9978127	sådan
-3.8238134	begyndelsen
-3.4071076	2017
-3.4727678	ville
-3.4936888	blive
-3.582027	grund
-4.4274716	manglende
-3.6876142	måtte
-3.7753892	imidlertid
-5.0857058	udsættes
-5.2303333	ubestemt
-3.4012034	tid
-2.6617637	efter
-3.7393289	længere
-4.5658092	proces
-5.2685122	genåbnede
-4.1508594	banen
-3.7273622	25.
-3.189918	august
-3.4394753	2018
-4.648979	nødvendige
-5.0256963	godkendelse
-5.4219546	trafik-
-5.316144	bygge-
-5.2523336	forelå
-4.196517	dagen
-3.2406993	september
-3.4350991	2004
-5.142836	remise
-3.6661122	syd
-3.3351533	2013
-3.759974	set
-5.262481	egn
-4.184412	spor
-3.3774984	gennem
-3.8664398	tiden
-5.1744914	lokalhistoriske
-4.708026	arkiv
-3.3289175	2009
-4.688198	åbner
-3.7281365	23.
-3.7150366	28.
-3.221098	april
-3.2707841	bliver
-4.747214	åbningen
-5.006771	forsinket
-3.7595975	29.
-3.1988485	januar
-5.1661873	letbanen
-4.764262	lørdag
-3.7183726	24.
-3.1995068	wikimedia
-3.1949787	commons
-3.1976826	filer
-3.194825	relateret
-3.3913076	koordinater
-3.0179598	/
-2.7307174	;
-5.3909717	akkord
-3.800135	alternative
-3.7302415	betydninger
-3.22546	se
-3.7223752	artikler
-3.7315497	begynder
-4.3484282	aftale
-5.234324	arbejdsgiver
-5.4097753	udregnes
-4.2366867	baggrund
-4.339347	resultater
-4.179225	modsætning
-5.4553194	udregne
-5.442182	arbejdstid
-3.32825	hvilket
-4.2169843	udbredt
-5.3482842	akkorder
-5.354584	foretrukket
-4.2974215	virksomheder
-5.0914383	konkurrerer
-5.1487217	omkostningerne
-3.6378596	forbindelse
-4.38587	produktionen
-3.878888	kendte
-4.065531	derudover
-3.7148669	arbejde
-4.670767	hurtigere
-3.2479694	mere
-4.196517	økonomisk
-4.831725	effektivt
-3.6613705	forhold
-5.353528	fastsættes
-3.1664631	ud
-4.8677692	forventede
-4.2395177	produktion
-3.9205863	pr.
-4.042504	time
-4.156453	ønskede
-4.4803543	omtales
-3.8988292	blot
-4.6262507	daglige
-4.7430544	kombineret
-4.6512766	indgået
-3.935278	enkelte
-5.3122888	kollektivt
-3.262141	samt
-3.5907753	artikel
-5.306569	leksikon.org
-4.7949324	vendsyssel
-3.6793587	indbyggere
-3.5372233	2019
-3.823004	beliggende
-4.115973	19
-3.4673862	km
-4.3335643	sydvest
-5.217803	dronninglund
-4.270371	26
-4.9544907	brønderslev
-3.7524536	12
-4.3410864	nordøst
-5.090286	nørresundby
-3.2899237	byen
-4.042865	hører
-3.966891	aalborg
-3.3232615	kommune
-3.161478	ligger
-4.0505695	region
-4.7300563	nordjylland
-4.323701	horsens
-3.3534667	sogn
-3.4143174	kirke
-4.5155096	nordøstlige
-4.1584015	ende
-4.857547	hovedgård
-3.892542	skole
-3.9313085	grundlagt
-5.1974454	1632
-4.08979	bygninger
-3.8533037	opført
-3.8051503	1970
-5.143486	gennemgribende
-4.9404078	renoveret
-3.5342538	2003
-4.12523	skolen
-4.7946405	99
-4.3441734	elever
-4.336497	fordelt
-5.1157665	klassetrin
-3.9565747	25
-4.3667455	ansatte
-5.0001736	råder
-2.8806438	over
-4.427597	spilles
-4.051463	fodbold
-4.899223	badminton
-4.27616	håndbold
-5.4332166	cafeteria
-5.4460816	lejes
-4.7865586	arrangementer
-4.1691713	60
-3.7442563	personer
-5.3431025	børnehaven
-3.609522	1999
-5.406187	normeret
-3.6906765	børn
-3.5893564	5
-5.45266	købmandsforretning
-4.2317166	aktiv
-5.4002714	borgerforening
-4.2292523	stiftet
-4.2515306	1923
-5.0372567	pastorat
-4.4893484	1867
-5.1959743	sognekommune
-4.707787	hammer
-3.8970551	oprindeligt
-5.3027973	præstegården
-4.5292063	1877
-4.2974215	flyttet
-5.447389	anneks
-2.7830954	havde
-4.268632	kommunalreformen
-4.737655	indlemmet
-3.0536497	fik
-4.0987344	opkaldt
-5.2432356	hovedgården
-4.3882637	undgå
-5.2693806	forveksling
-4.9197154	østjylland
-4.9553337	separat
-5.2548485	læssespor
-5.4049973	stikspor
-4.86708	banens
-3.4566848	sidste
-5.410978	nedrykket
-4.6483545	trinbræt
-3.736644	lå
-4.7384224	enden
-4.0301027	vejen
-3.6557055	ned
-5.1231527	tracé
-4.3141522	bevaret
-4.507014	strækker
-5.0972476	1½
-3.7518196	vest
-4.297793	1901
-4.540905	beskrives
-3.5901017	således
-4.423487	hertil
-4.4479637	hospital
-4.581931	„
-4.613778	fru
-4.9263725	stiftelse
-4.0832853	“
-4.0175586	oprettet
-4.771384	1831
-4.3573837	karen
-5.250665	joh
-5.1865344	zeuthen
-4.5577984	enke
-3.627843	p.
-4.0172668	hus
-3.9135568	16
-5.3556433	trængende
-5.264196	faa
-5.2391624	brændsel
-5.050707	pleje
-4.488772	medicin
-5.444778	lægehjælp
-3.185467	1
-4.20043	kr.
-4.6128182	à
-4.456439	33
-5.00346	øre
-5.322974	missionshus
-5.217803	opf
-4.4900703	1886
-5.0862756	sparekasse
-4.898482	past
-5.145442	opr
-4.539122	1869
-3.6470745	...
-3.8809443	antal
-5.3431025	konti
-5.354584	332
-4.1032767	møller
-5.107904	teglværk
-4.8273053	søndre
-4.2634563	paa
-4.876124	enge
-4.7817235	nordre
-4.4519157	1879
-3.7214634	plads
-3.8927245	30
-5.305623	lemmer
-5.3807416	målebordsblad
-4.536381	1900-tallet
-3.8256557	ses
-4.2486205	hotel
-5.079486	mejeri
-3.7873137	slutningen
-3.9467874	byens
-3.4184635	navn
-4.238707	ændret
-3.5377874	danmarks
-4.1566544	statistik
-4.32756	statistikbanken
-4.463857	tabel
-4.690943	by1
-4.3126135	folketal
-3.1748774	1.
-4.5415554	byområde
-4.0835686	alder
-4.402083	køn
-4.048735	hvem
-3.715668	hvad
-3.9654639	1971
-4.163821	politiken
-3.0295937	s
-5.107305	139
-5.2772756	evp
-3.822724	erik
-4.3525143	v.
-4.0508323	pedersen
-4.882854	nordjyllands
-4.604653	stationer
-4.597933	j.p
-4.455771	trap
-4.242204	kongeriget
-4.6668415	udarbejdet
-5.103729	weitemeyer
-3.5067039	3.
-3.562252	4.
-3.6610277	bind
-5.414606	417
-4.0777144	historiske
-4.691632	saint
-3.9019513	paul
-4.7961	minnesota
-4.182914	hovedstad
-3.615267	amerikanske
-4.281669	delstat
-3.2976663	2010
-5.291675	minneapolis
-4.183484	danner
-3.6400583	området
-3.393743	kendt
-5.148064	twin
-5.066762	cities
-4.694399	administrativt
-4.069737	centrum
-5.328915	ramsey
-3.9481542	county
-4.5677056	oplysningen
-4.3582363	wikidata
-2.6821592	ikke
-3.840003	kilder
-3.9388368	officiel
-3.4825978	hjemmeside
-4.141693	type
-5.2490034	cykelløb
-4.548608	afholdes
-4.6128182	rute
-3.2645586	end
-3.987017	kilometer
-4.97651	strækninger
-4.3769813	angivet
-4.776663	omgange
-4.4103017	varer
-3.2483087	omkring
-4.6338296	kortere
-4.351778	traditionelle
-5.3269258	landevejsløb
-3.350502	nogle
-5.315177	strække
-3.840618	dage
-4.2978854	uger
-4.0682573	grand
-3.2746472	meget
-4.0524116	højere
-4.578729	vinderen
-2.9046545	første
-4.985008	rytter
-4.689111	krydser
-5.3773847	målstregen
-3.2729435	blevet
-5.357769	overhalet
-4.3152137	omgang
-5.403811	løbene
-5.3431025	præmier
-4.133797	vinde
-4.8839264	specifikke
-3.8950312	eksempel
-3.6236758	hver
-4.9677415	tiende
-4.2643147	kræver
-4.5855165	blanding
-4.0505695	gode
-4.3640347	tekniske
-4.544657	evner
-4.681635	mestre
-4.9528103	skarpe
-5.232723	hjørner
-4.429227	køre
-4.523863	sikkert
-3.5551949	større
-3.8181174	gruppe
-4.383376	lukket
-4.0474815	god
-4.5540986	angribe
-4.8336334	ryttere
-5.4269238	gentagende
-5.444778	accelerere
-5.3990984	hjørnerne
-5.1894174	beta
-4.2061787	el
-4.2743974	israel
-5.392123	hebræisk
-4.237413	betegnelsen
-4.611097	fremmede
-4.1350074	anvendt
-3.9314682	gruppen
-4.4614153	jødiske
-4.423363	jøder
-4.3780966	oprindelse
-5.323959	etiopiske
-4.556786	betegnes
-4.7908697	lovgivning
-4.1693783	staten
-4.5576296	gennemførte
-4.117196	1950
-4.471127	fremme
-5.394436	nyetablerede
-4.235318	stat
-5.3094196	90.000
-4.6685815	85
-4.599975	hovedsagelig
-4.287521	operation
-4.9279537	moses
-3.896576	1984
-5.264196	solomon
-3.8140159	1991
-4.4783807	fortsætter
-3.6642094	stadig
-4.1752877	ganske
-3.3411827	få
-3.343321	tilbage
-4.932332	etiopien
-5.1306667	relaterede
-5.185817	konverterede
-4.6491876	kristendommen
-3.1443732	senere
-4.7940583	vendt
-4.3072686	tro
-5.079486	bæk
-4.093485	flertydig
-4.785416	vandløb
-4.5296807	bredde
-5.4194913	vandføring
-5.316144	bække
-4.2701097	vigtige
-5.291675	vandets
-5.203378	cyklus
-4.927558	bidrager
-4.7366343	tjener
-5.3620524	korridorer
-4.517506	fisk
-5.371846	vandringer
-3.8042855	nogen
-3.9800403	fast
-4.417455	grænse
-4.700924	hvornår
-5.2719965	vandløbet
-3.5965528	stedet
-3.8097415	kaldes
-4.379215	å
-5.334939	åer
-3.856618	én
-3.6223023	meter
-4.571872	brede
-3.305455	mens
-4.727303	næppe
-4.011468	finder
-3.7674353	brugt
-2.821735	to
-4.5448213	bredt
-4.389408	almindeligt
-4.060988	navne
-4.80169	eventuelt
-3.9147463	steder
-4.8374753	begreber
-5.178704	forme
-4.8368325	bech
-4.36729	skotland
-3.234695	været
-4.9461517	kulturel
-4.7777824	påvirkning
-3.9463325	anvendes
-4.742021	beck
-5.0326967	ækvator
-4.7094603	geografiske
-5.2224593	vinkelret
-4.4844713	jordens
-5.1593866	akse
-4.060665	løber
-5.4566555	nordpol
-5.447389	sydpol
-4.646072	adskiller
-3.8255305	nordlige
-4.987726	halvkugle
-3.9394464	14
-4.890053	landes
-4.719391	territorium
-5.208637	vestafrika
-3.7666972	øst
-4.9465647	são
-5.3875346	tomé
-5.418265	príncipe
-3.569235	lille
-4.2323546	ø
-4.440552	das
-5.322974	gabon
-4.4831896	republikken
-4.915077	congo
-4.580505	demokratiske
-4.421385	republik
-5.0990057	uganda
-4.7125845	inklusive
-5.350374	småøer
-4.5651217	lake
-4.4812026	victoria
-4.9181643	kenya
-5.0115457	somalia
-5.4500165	maldiverne
-3.546898	ingen
-4.295202	øer
-4.715003	passerer
-4.9082117	indonesien
-4.382135	heriblandt
-5.334939	sumatra
-5.347243	borneo
-5.4256763	kiribati
-4.9279537	gilbert
-4.4804955	islands
-4.799033	baker
-4.0208325	island
-3.5685422	amerikansk
-5.273749	nb
-3.6326118	!
-4.109729	økonomiske
-5.1836705	zoner
-5.4306884	jarvis
-5.1001816	ecuador
-5.4566555	quito
-3.9443538	13
-4.87402	colombia
-5.2790494	junglen
-3.994338	landets
-4.3759804	brasilien
-5.208637	munding
-4.8368325	hovedby
-4.3110795	delstaten
-3.9226158	trods
-3.8904662	øen
-4.0942974	200
-4.0248733	resten
-3.7076533	landet
-5.331917	lexopen
-4.7961	antarktis
-5.244055	arktis
-4.8407025	breddekreds
-4.584258	længdekreds
-5.4513364	meridian
-4.339245	slægten
-4.588225	120
-4.040395	arter
-3.7218328	europa
-4.6800656	mellemøsten
-5.125643	østasien
-4.977841	nord-
-5.0212555	arterne
-4.9311337	buske
-5.2667804	stauder
-4.31175	planter
-5.212433	firkantede
-5.118829	stængler
-4.5701313	modsat
-4.4169664	stillede
-4.3683805	blade
-4.6683636	blomsterne
-5.1717057	uregelmæssige
-5.3785005	symmetriske
-4.3032093	hvid
-4.094704	blå
-5.1872535	violet
-5.342074	lyserød
-4.363171	klart
-4.364251	rød
-4.750097	sædvanligvis
-4.218605	nemlig
-4.7758245	frugterne
-5.190141	kapsler
-3.9366496	ret
-3.2010043	store
-4.022848	nævnes
-4.762094	dyrkede
-3.719033	=
-5.4566555	officinalis
-5.3410473	broget
-3.7251718	x
-3.3604648	new
-4.447439	book
-3.193582	isbn
-4.274222	orden
-4.842651	antikke
-4.530473	arkitektur
-4.063578	udviklet
-4.3321557	grækenland
-3.594049	5.
-4.5159698	f.kr
-5.3180842	korinth
-3.956152	ældste
-4.3219314	eksemplarer
-3.9119124	fundet
-5.4207215	søjlerne
-5.4434776	cylindriske
-4.811877	svagt
-5.4513364	kegleformede
-5.1312985	lodrette
-5.4460816	furer
-4.805557	rigt
-5.075574	udsmykket
-4.229094	kendes
-5.323959	udskåret
-5.44089	stiliserede
-3.8211727	stod
-4.9123945	indgangen
-5.1206765	templer
-4.1405935	stil
-4.531903	ligner
-4.968611	dekoreret
-5.027187	søjler
-4.0669465	ser
-4.514286	ens
-3.1705356	alle
-4.143316	sider
-4.6232953	beregnet
-5.235931	forfra
-5.2781615	søjle
-4.9677415	foretrukne
-4.5774903	romersk
-4.316375	kvindelige
-3.7244523	fordi
-4.2134542	benyttes
-4.3589835	øverste
-5.4566555	colosseum
-4.3838286	bærer
-3.9979522	mindst
-4.526212	forskel
-4.536381	mandlige
-5.025201	nederst
-4.039012	egne
-3.252369	samme
-4.8705363	opbygning
-5.4133935	frise
-4.762094	tendens
-4.967308	variere
-5.350374	ordner
-4.4491453	basis
-3.6417966	noget
-5.240787	smallere
-4.3450003	regnes
-4.5946116	lettere
-4.1337333	rom
-4.665757	sættes
-4.419293	lavere
-5.337982	mindesmærket
-5.3652925	mæcen
-5.4319506	opsætninger
-5.148064	athens
-5.4014482	330'erne
-3.8388724	seks
-4.321735	nyere
-5.2582245	arkitekturen
-4.2199993	washington
-4.8674245	d.c.
-5.0635033	temple
-4.9523907	apollo
-4.7949324	unesco
-3.5593271	world
-4.747998	heritage
-4.4793663	centre
-4.86708	monument
-5.024211	image
-5.4231915	bitcoin
-3.958695	online
-4.773321	virtuel
-4.9983068	valuta
-3.9871075	selvom
-5.4014482	betalingsmiddel
-5.369651	accepteres
-4.412593	populær
-3.974142	verdens
-5.1627736	anonyme
-5.350374	satoshi
-4.697649	offentliggjorde
-2.8440692	sin
-5.100771	opfindelse
-3.8700643	efterfølgende
-3.9201581	udgav
-4.527943	systemet
-4.1392384	open
-4.879299	source
-4.7820067	brugere
-4.7361245	indgå
-5.3200336	transaktioner
-3.97808	hinanden
-5.434486	pengeinstitutter
-5.45266	centralbanker
-5.0337057	skabelsen
-4.624278	netværk
-4.858221	computere
-3.5195177	hjælp
-5.394436	algoritmer
-3.8678515	følge
-4.225779	heraf
-5.392123	valutaer
-4.4338994	hverken
-5.0454845	reguleret
-4.5885873	underlagt
-5.142187	lovgivningen
-2.908254	dansk
-4.4986806	europæisk
-4.2468834	plan
-5.217803	økonomer
-5.022731	vurderet
-4.762094	fremtid
-4.6193852	yderst
-5.307517	tvivlsom
-4.739704	sammenlignet
-3.0849159	danske
-5.4256763	nationalbankdirektør
-3.9567018	lars
-5.1281476	rohde
-5.17941	advarede
-4.6229024	anvende
-2.280477	han
-3.8140159	fandt
-5.007722	velegnet
-5.264196	investering
-4.3107924	kaldte
-4.6845646	digitale
-4.236203	ude
-4.295479	kontrol
-5.2853165	sammenlignede
-4.4148955	hollandske
-4.626053	1600-tallet
-5.1808257	kendteste
-4.771384	finansielle
-5.4194913	bobler
-4.1137195	selve
-5.2650557	teknologien
-3.918954	bag
-4.033119	såkaldte
-4.3689265	anses
-5.137029	lovende
-4.7553883	sammenhænge
-3.2494946	oktober
-4.0107965	titlen
-5.0496573	electronic
-5.138956	cash
-4.0258145	system
-4.4519157	bygger
-3.7937496	videre
-5.0192957	idéer
-3.5586329	udgivet
-5.1744914	forgængere
-3.802769	david
-3.728787	1994
-3.3618932	nu
-4.1988754	hedder
-3.255599	november
-4.9523907	ydermere
-4.783424	drage
-5.2972007	paralleller
-4.458181	projekt
-3.8238134	kaldet
-5.0428967	bit
-4.609762	gold
-4.7016287	modtage
-4.8636513	hal
-4.197621	skabt
-4.202586	lignende
-4.962993	hentede
-5.406187	softwaren
-3.9568286	modtog
-3.2632966	blandt
-4.184412	tidlige
-4.6729627	tilhængere
-5.286219	wei
-5.334939	dai
-5.2432356	skaberen
-4.915462	forgængeren
-4.6071053	nick
-4.5469575	megen
-5.3567047	spekulation
-4.756988	hvorvidt
-4.491953	virkeligheden
-3.337557	disse
-4.605218	anvender
-4.6586695	foreslået
-4.236606	adam
-4.387122	back
-3.7022734	1997
-4.7891397	processen
-4.362955	regler
-5.3299136	formater
-4.321735	beskrevet
-5.315177	protocol
-5.3796196	protokollen
-5.392123	opdateres
-4.8754215	ændres
-4.6705475	løbende
-5.382994	udviklere
-4.468507	såkaldt
-4.0873823	dvs.
-5.337982	datanet
-4.61167	computer
-3.70376	lige
-3.7345586	stort
-4.5615296	ansvar
-5.337982	funktionalitet
-4.480778	betale
-3.245988	have
-4.916232	installeret
-4.586237	afhængig
-5.0972476	netværket
-4.6446257	fungere
-4.085841	program
-4.236203	adgang
-3.4142687	række
-5.231128	adresser
-4.664892	ligge
-5.389823	udbydere
-4.9805145	sammenlignes
-4.2047534	penge
-4.692322	stående
-4.7868447	banken
-4.1000276	offentlige
-4.267246	foregår
-4.1452713	alene
-4.866392	parter
-5.0925937	udveksling
-5.3200336	beskeder
-4.7842765	underskrevet
-3.959248	muligt
-4.8545265	interne
-3.854941	aldrig
-4.382473	tegn
-4.8323603	bogstaver
-4.0221095	tal
-3.389401	hvis
-4.1277323	bruger
-4.3731008	ønsker
-4.531108	nødvendigt
-4.759937	kende
-4.886079	adresse
-5.366378	brugerens
-4.3472824	hvorfra
-4.6907134	sendes
-4.262343	central
-4.930735	autoritet
-4.858558	bestemme
-4.5885873	afsluttet
-4.1055956	holde
-4.844608	forbindelsen
-4.6948614	identitet
-4.958721	hemmelig
-3.3860788	vil
-5.232723	anonymt
-3.876665	gøre
-5.0689483	sværere
-5.1376705	spore
-4.504467	sende
-4.511544	modtager
-3.7809715	mennesker
-3.7105243	derefter
-5.434486	modtagne
-5.051233	tilfældigt
-5.342074	distribueres
-3.5603282	igen
-5.17941	blander
-5.2826195	kendsgerning
-4.764262	nødvendigvis
-5.231925	knytte
-5.125019	adressen
-4.3018956	modtaget
-4.973421	ejeren
-4.718412	medfører
-5.3451676	attraktiv
-4.9599986	kriminelle
-4.0925	formål
-4.034585	sat
-5.124396	illegale
-4.4151387	aktiviteter
-4.2203875	sorte
-5.402628	silk
-4.4188023	road
-4.9895477	skabes
-4.6655407	internettet
-4.988636	tilgængeligt
-5.1614156	minedrift
-5.3652925	mining
-5.2548485	uddelingen
-5.1151567	brugerne
-4.3470745	praksis
-4.4478326	anvendelse
-4.7902923	væsentlige
-4.373985	jo
-4.532221	driver
-4.8034706	desto
-5.0937524	chancen
-5.1724005	gevinst
-4.7769423	jf.
-4.841351	afsnittet
-5.342074	forneden
-4.7683563	mængden
-5.3113303	aftager
-4.1291776	endelig
-5.448701	forudbestemt
-4.1362214	21
-3.8672657	millioner
-5.4396014	pengemængden
-4.4435277	vokser
-5.346204	geometrisk
-5.047566	blok
-4.347491	omtrent
-3.8756106	hvert
-4.494573	halvdelen
-5.4207215	genereret
-5.289849	3/4
-5.3493276	generere
-3.3130782	selv
-4.106192	let
-5.185817	skille
-5.344134	foretagender
-4.5456414	endelige
-3.8955088	baseret
-4.3759804	stigende
-5.0851364	efterspørgsel
-4.4427495	værdi
-4.434916	enhed
-5.4194913	valutaen
-4.4336452	designet
-3.7441525	dele
-4.3049984	enheder
-3.6376567	helt
-3.650657	8.
-5.068401	betydende
-5.2972007	ciffer
-4.4874773	mindste
-5.060806	psykologisk
-3.8764539	betydning
-5.042381	koste
-4.97873	tusindvis
-4.3272614	kroner
-5.3875346	1.000.000
-5.220902	kursen
-4.9404078	usd
-4.016295	starten
-4.766714	kostede
-5.1357493	omegnen
-5.412184	19.000
-4.0914025	historisk
-5.393278	budt
-5.332922	kurven
-4.33296	tider
-4.494719	efterfulgt
-4.1967373	fald
-3.7815084	løbet
-4.7082644	faldet
-4.4335184	procent
-3.704493	fem
-5.448701	gangene
-4.960852	steget
-4.8339524	kurs
-4.2211647	minutter
-4.260806	prisen
-4.8285637	bevæge
-5.21396	betragteligt
-4.2682853	netop
-4.691402	kritiseret
-5.2416015	sammenligner
-4.547122	vilde
-4.2842703	præget
-3.4013093	stor
-4.9918356	sprang
-5.2871237	1637
-4.9093485	folks
-4.6593094	pludselig
-5.344134	udsving
-3.8764892	gør
-5.4396014	ubrugelig
-5.310374	svinge
-5.3259344	5-10
-4.514286	stoppede
-5.273749	steam
-5.3642097	betalinger
-5.1325655	relative
-4.018875	succes
-5.142836	fremkomsten
-3.7171278	samtidig
-5.1127257	vurderer
-4.317733	særlige
-4.091114	grupper
-4.5095754	muligheder
-4.3907857	professionelle
-5.134473	gemmer
-4.8010983	tjene
-5.2582245	ideologisk
-5.235127	orienterede
-4.6556973	ideen
-5.1500406	færdes
-4.898482	handle
-4.876476	nettet
-5.0549307	overvågning
-3.8262506	herunder
-5.2224593	nationalbanken
-3.9718137	europæiske
-5.2925916	advaret
-4.303115	handel
-5.435759	finanstilsynet
-4.886079	anser
-4.9782853	omfattet
-3.8947377	fået
-5.3269258	interessere
-5.0629625	fænomenet
-5.3955965	vurderingen
-5.3493276	skeptisk
-3.9036334	direkte
-4.878945	negativ
-4.2958484	økonomi
-4.6069164	berømt
-3.8397443	is
-4.925584	evil
-4.9074554	fremført
-5.178704	ordentligt
-5.1520267	stabilt
-4.4101815	svært
-4.973861	opfylde
-5.447389	kriterium
-5.3113303	centralbank
-4.443138	offentlig
-4.788852	myndighed
-5.394436	garantere
-4.950301	værdien
-3.6518297	university
-4.546628	california
-4.939187	berkeley
-4.977397	brad
-4.2131486	mener
-5.1513634	alment
-4.925978	accepteret
-4.1634803	skabe
-5.322974	o.l
-4.418067	egenskaber
-5.3967605	tilskyndelse
-4.489637	væsentlig
-4.5420437	udbredelse
-3.8862364	professor
-4.984556	tyler
-5.224023	argumenterer
-5.089136	priserne
-4.5608487	konstant
-4.362955	falder
-3.9379444	lange
-4.1708307	løb
-5.2523336	problematisk
-5.231128	nationalbank
-4.9236193	undersøgt
-5.1981826	bankens
-5.2109103	kvartal
-3.32668	2014
-5.337982	analysen
-4.7386785	nævner
-4.862628	peger
-5.3113303	svingende
-4.665974	kraftige
-5.176593	underliggende
-4.5047655	dækket
-4.3057537	heller
-4.724319	beskyttet
-4.7661676	formodentlig
-5.3796196	mene
-5.4244323	betalingen
-5.3200336	besværligt
-5.1703196	gængse
-4.5032735	forfattere
-4.7588625	vanskeligt
-4.6120524	benytte
-4.768905	nede
-3.8306599	idet
-4.8298254	konstruktion
-4.9449143	omkostninger
-5.1865344	sagens
-4.4222493	natur
-4.5896764	virkelig
-4.795808	enorme
-4.9747424	forbrug
-4.9093485	elektricitet
-3.646784	går
-4.647523	mine
-3.9524488	tale
-4.9677415	ligeså
-4.6456585	strøm
-4.6674933	tjekkiet
-5.367466	forbruger
-4.224523	private
-4.4844713	industri
-5.156696	erhvervsliv
-5.1019516	forurening
-5.368557	størrelsesorden
-4.4644017	million
-5.45266	transatlantiske
-4.1249804	snart
-4.7152457	oppe
-4.13107	østrig
-4.664676	halv
-5.414606	energiforbrug
-5.3620524	forøges
-4.9566007	450
-4.264143	tilsvarende
-4.5469575	årlige
-4.961707	udgifter
-4.770556	opgivet
-4.2395177	$
-4.7735987	1,5
-5.1533556	milliard
-5.4073796	udsteder
-4.1972523	vigtig
-4.7978578	skiftende
-5.1593866	ejerskab
-5.2925916	registreres
-5.1206765	registrering
-3.7771769	eneste
-4.6018405	offentligt
-4.6955566	tilgængelige
-3.9001646	information
-5.050182	gemt
-4.781441	aktuelle
-5.1981826	tilføjes
-5.2011437	fortegnelse
-5.1758914	block
-5.289849	chain
-4.774154	afledt
-5.1225324	nøgle
-4.61725	public
-4.9536495	key
-5.314212	gengives
-4.7485223	58
-3.8703415	måde
-5.177295	distribueret
-5.1703196	belønning
-5.1675606	inkludere
-5.1402454	afgift
-5.0178323	miner
-3.9703267	finde
-5.4002714	diskrete
-5.4460816	elliptisk
-5.1212945	kurve
-4.7409897	grundlaget
-3.703311	bruges
-5.437036	inkarnation
-5.3200336	pålidelig
-4.3424215	intet
-4.019559	hvordan
-3.9474494	hurtigt
-3.8529704	data
-4.8298254	given
-4.194683	tildelt
-5.162094	accepterer
-5.337982	tilpas
-4.1537805	foran
-5.2728715	hash
-4.5171986	sætter
-5.208637	tilfældig
-4.6569686	henhold
-5.147407	omfanget
-5.2972007	løser
-4.7176795	gammelt
-3.9554763	problem
-4.788852	problemet
-5.279939	byzantinsk
-5.351423	gemmes
-3.9462912	høj
-3.923438	tage
-3.716957	lang
-4.799917	tusinde
-4.6394997	slår
-4.8595724	hyppigt
-5.0296826	oftere
-4.7891397	naturligvis
-5.0744624	yder
-5.2935095	udbyttet
-5.257378	udvinding
-3.9026234	guld
-5.3451676	ledninger
-4.613778	rigtig
-3.918954	leder
-4.247462	inde
-4.8882422	sundhed
-5.0640445	smykker
-5.254009	dekoration
-5.1332006	enlige
-5.2746277	1.300
-5.2375436	satse
-4.037684	maria
-5.444778	finans.dk
-4.775267	dateret
-3.6404054	20.
-4.6007204	bragt
-4.6292267	jyllands-posten
-3.972033	anders
-4.9599986	laursen
-4.5047655	jon
-5.2263784	virtuelle
-5.4049973	nationalbankens
-3.6595094	nr.
-2.7645833	hentet
-3.7399964	26.
-4.5970078	dr.dk
-5.412184	frontiers
-5.052286	indlæg
-5.024706	timothy
-4.4419727	taylor
-4.3794384	redaktør
-4.7453895	economic
-5.245698	perspectives
-4.6631665	analyse
-3.646784	15.
-5.2093935	sov
-3.971157	tour
-4.347491	force
-4.788852	bryder
-4.811574	dollar
-3.7615912	20
-3.8878584	mænd
-4.9473925	publiceret
-4.762094	pressemeddelelse
-4.552594	advarsel
-4.604841	m.fl.
-5.3875346	jeffries
-4.7946405	why
-4.225465	do
-4.3198757	n't
-4.5635786	like
-4.8061547	blog
-3.6331937	york
-4.071442	times
-5.4500165	watching
-4.0005655	center
-5.1109114	growth
-4.3537793	will
-3.1558998	in
-4.6429787	price
-5.4097753	revolutions
-3.7479038	30.
-5.190141	2013.
-3.9517372	https
-3.5325136	http
-5.2633376	bloomberg
-4.304715	fremstillet
-5.42943	nåletræ
-5.160738	voks
-5.233523	lim
-5.177295	presses
-5.250665	massen
-4.713309	temperatur
-4.6054063	tryk
-4.7125845	plader
-5.3990984	paneler
-5.428175	byggemateriale
-5.143486	unikt
-4.4880524	overflade
-4.8339524	ekstremt
-4.810364	fint
-4.747475	fremstilles
-4.285351	træ
-4.002866	herefter
-5.228747	tilsættes
-4.6601634	flydende
-5.4539876	fibrene
-4.637466	blandet
-4.3073635	stærk
-3.9941535	typisk
-5.0817375	ekstreme
-4.4314938	anvendte
-5.0326967	simpelt
-4.27203	hen
-5.374053	smelte
-3.4726012	når
-4.465629	udsat
-4.4867597	varme
-5.2633376	påført
-4.756454	pladen
-3.8182096	godt
-5.437036	tørres
-5.351423	blandingen
-5.389823	lagres
-3.47554	indtil
-5.024706	fremstillingen
-5.2981286	pladerne
-4.758326	fremstille
-4.1804986	lagt
-5.3027973	tæppe
-4.6288285	kørt
-4.816142	presse
-5.2990584	presser
-5.212433	tykkelse
-4.1971054	led
-4.9553337	2-3
-4.8152246	fuldstændigt
-4.6496043	afslutningen
-4.2289357	klar
-4.8266773	bestå
-4.8127875	82
-3.8986442	9
-3.7941277	8
-3.8535037	områder
-3.3349512	andet
-4.2631993	eksempelvis
-4.9311337	unikke
-5.015888	massiv
-4.6625214	uanset
-4.6332264	dybt
-4.1771817	sige
-4.9796214	mønstre
-4.713309	overfladen
-4.8397317	male
-4.938781	synlige
-4.934739	møbler
-4.3179274	gerne
-5.4231915	råt
-4.190676	udtryk
-4.9355445	tynde
-4.1502643	derved
-4.667928	helst
-4.8216877	ønsket
-4.6054063	udseende
-4.36729	typer
-3.4637127	først
-4.5085187	fremmest
-4.4358077	farve
-4.4527106	grøn
-4.2369285	sort
-5.2676454	producenten
-5.3410473	hælder
-4.352725	mængde
-5.3773847	farvestof
-3.980487	ligeledes
-5.3493276	nyttigt
-5.0761304	hospitaler
-5.160738	måden
-4.9498844	fremstiller
-4.762635	plade
-4.3540964	faktisk
-3.8604996	lidt
-4.1223702	almindelige
-4.806454	forskellen
-4.890053	påvirker
-5.3027973	vanskeligere
-4.3028336	materiale
-5.3027973	bearbejdning
-5.370747	frigøres
-5.0733542	støv
-5.4332166	indånding
-4.39506	vel
-4.406471	rum
-5.3785005	arbejdspladsen
-4.171316	fri
-4.608432	luft
-5.147407	teknologisk
-4.1795077	institut
-4.384621	viden
-5.334939	thora
-3.2832134	februar
-4.8152246	1821
-3.2367382	københavn
-3.7040672	16.
-4.7817235	fotograf
-5.2935095	fotografer
-2.9627366	hun
-5.316144	halvsøster
-4.0837955	jacob
-5.1553564	uægte
-4.2237396	barn
-4.355154	hæren
-5.354584	graver
-4.172219	andreas
-3.2309947	død
-4.618802	1853
-4.1032767	anne
-4.4119887	margrethe
-2.9751272	født
-4.745129	1828
-4.641543	skilt
-4.6767216	1846
-4.0925	boede
-4.8472304	forældrene
-4.7943497	barndom
-5.242418	oplysningerne
-5.353528	sparsomme
-5.1357493	tilegnet
-4.791737	kunsten
-5.232723	fremkalde
-4.632825	lærte
-4.4960356	vidt
-3.6760423	vi
-5.279939	studieophold
-3.7899284	paris
-4.5821095	1855
-4.315407	sandsynligvis
-4.98546	lært
-4.933133	metoden
-3.7966669	franske
-4.8599105	hente
-4.8034706	nyeste
-4.8254247	erfaringer
-5.0496573	ansøgning
-5.4073796	indsendt
-4.71138	fond
-3.2971287	sit
-4.4672713	ønske
-4.003902	støtte
-5.2473474	studierejse
-4.3843946	lære
-3.8095906	må
-5.136389	virket
-4.3806725	etablerede
-5.0413513	atelier
-4.590404	1857
-5.435759	selveste
-4.4922433	h.c.
-3.8896315	andersen
-4.490938	perioder
-5.1560254	kongensgade
-4.2244444	bygning
-4.817368	café
-5.4014482	porta
-4.2117	kongens
-5.012988	nytorv
-2.84179	hans
-5.2048745	nyhavn
-3.978881	18
-4.4615507	digter
-4.818906	overraskende
-5.2667804	fotograferet
-3.830122	hende
-4.539122	portræt
-4.936755	gengivet
-3.4095855	2005
-4.8736706	tove
-3.7203815	hansen
-4.9536495	kvinders
-4.964283	fotografi
-4.1786604	1900
-4.4576445	fund
-4.3581295	29
-3.7789998	1990
-4.689111	66
-5.244876	personalhistorisk
-4.174798	tidsskrift
-4.0567055	1962
-4.4247284	34
-5.3990984	indigo
-5.066762	spektrum
-4.199763	bestemt
-5.224023	udvindes
-4.102566	ordet
-4.2958484	indien
-3.1220071	'
-5.1151567	klæder
-4.434916	egypten
-4.756454	dyb
-4.3978558	nærmest
-4.5933266	mørke
-5.368557	bleg
-4.7905807	tone
-4.8381186	lyse
-5.406187	jeans
-4.5287323	traditionelt
-5.142836	farvet
-4.917004	farven
-3.993416	version
-4.286344	skyldes
-4.160358	grænser
-5.3269258	ultraviolet
-3.700065	kommer
-3.2594733	kom
-4.1101503	brugte
-4.596269	kemiske
-4.5556083	formel
-5.0528135	reducerede
-5.4306884	sværeste
-4.2935443	farver
-5.244055	syntetisk
-4.369693	adolf
-4.4387507	1880
-4.3652253	firmaet
-4.82293	effektiv
-5.090286	sharon
-5.220902	lab
-4.164162	italiensk
-4.784846	producent
-5.068401	lastbiler
-3.5623033	2002
-4.6569686	renault
-5.4269238	trucks
-4.9978414	opkøbt
-4.1584015	italienske
-4.1313863	selskab
-3.7530622	100
-4.4335184	ejet
-4.7275524	fiat
-5.0321927	industrial
-4.994136	datterselskab
-4.933133	leverer
-5.176593	dieselmotorer
-5.002518	producenter
-4.8857193	citroën
-4.8962674	peugeot
-4.5328584	daily
-4.403975	sveriges
-4.31175	flag
-3.9409537	svenske
-5.4049973	nationalflag
-4.710419	1500-tallet
-4.094181	officielt
-4.252282	1906
-4.95407	blåt
-5.0629625	gult
-4.9800677	skandinavisk
-4.647523	kors
-4.0484214	midten
-5.1937776	karakteristika
-4.2515306	nordiske
-4.8061547	1200-tallet
-5.406187	flagets
-4.937969	udformning
-4.2936363	inspireret
-4.375536	dannebrog
-3.366815	gang
-4.2990007	gustav
-5.1109114	vasa
-5.3279195	1562
-4.9404078	lød
-4.5502644	kongelig
-5.0722485	forordning
-4.927558	flaget
-3.29069	skulle
-5.231925	udi
-5.158039	kryds
-5.1974454	uklar
-5.0544004	påstår
-4.8320427	1400-tallet
-4.600534	konger
-5.3482842	kalmarunionen
-3.693068	sverige
-3.7402792	ifølge
-3.906074	1982
-4.468232	forholdet
-4.9507184	højden
-4.87437	længden
-4.097036	indre
-4.9263725	felter
-4.1609674	højde
-4.4151387	ydre
-4.621727	gul
-4.814004	farverne
-4.9486365	defineres
-5.0266895	116
-4.114449	c
-4.9363513	109
-4.44081	u
-5.296275	301
-3.9194198	50
-4.2383833	græsk
-5.090286	kritiker
-5.1091046	bibliotekar
-4.4799304	virkede
-4.8439546	biblioteket
-4.939187	alexandria
-4.6563325	ansvaret
-5.4500165	kataloget
-4.0851583	bøger
-4.339449	bibliotek
-4.967308	fyldte
-4.341702	lagde
-4.208893	studier
-4.267852	græske
-5.3369656	litteraturs
-3.621852	historie
-4.0537853	1966
-3.8491879	konge
-3.6338975	frederik
-3.674692	11.
-4.8377967	tina
-4.783424	forsvundet
-4.355896	måned
-5.386395	behold
-4.4170885	helsingør
-4.120207	århus
-4.7381663	stiftstidende
-5.0744624	udsender
-3.94625	nummer
-4.822619	50.000
-4.861267	1794
-5.1937776	botswana
-4.6444197	selvstændigt
-3.734457	22.
-5.048088	folketingsvalg
-5.2026324	indvies
-5.4460816	biltrafik
-5.4460816	hjarbæk
-4.3999643	fjord
-5.2271667	ophører
-3.9797726	richard
-4.8349104	walker
-4.728302	opdager
-3.734305	27.
-3.865307	jens
-3.7538042	carl
-4.6843386	brasiliansk
-3.7200134	fodboldspiller
-3.6285777	6.
-4.8449345	rick
-4.1595473	britisk
-4.1706233	sanger
-5.340023	cindy
-5.1815352	crawford
-4.463993	skuespillerinde
-4.701159	jeff
-4.7318172	canadisk
-4.29034	chris
-4.705171	evans
-4.6859236	robin
-4.796978	wright
-5.212433	samantha
-4.4793663	fox
-4.6232953	sangerinde
-5.0602684	janet
-4.3528304	jackson
-3.702674	13.
-4.0049887	russisk
-4.803173	matematiker
-4.1389165	−
-4.016295	ole
-3.4299858	christian
-4.3037734	madsen
-4.5282583	filminstruktør
-3.5104585	peter
-5.207128	spies
-4.122928	komponist
-4.7545905	einar
-5.351423	enemark
-4.8368325	rapper
-3.6462455	7.
-4.637872	jimmy
-4.401493	wales
-5.434486	medgrundlægger
-4.477397	wikipedia
-4.980962	halle
-4.985912	berry
-3.6803653	17.
-4.6800656	bernhard
-3.7644355	forfatter
-5.3852587	sandler
-3.7833781	skuespiller
-4.8198314	luke
-4.7556543	perry
-5.4434776	binzer
-4.5851564	guitarist
-5.3122888	d-a-d
-3.859044	martin
-5.191592	aktivist
-3.2545981	2.
-4.7351074	sofie
-4.4950113	flemming
-5.3390017	povlsen
-4.5708265	helle
-5.1815352	thorning-schmidt
-3.9387963	politiker
-4.70731	vincent
-3.5110343	fransk
-3.9063377	præsident
-4.9440913	alberto
-4.9127765	schweizisk
-4.7430544	billedhugger
-5.1225324	buster
-5.3875346	keaton
-4.189879	instruktør
-4.4027915	1895
-3.934473	jørgen
-5.0689483	kampmann
-4.197326	arkitekt
-4.409461	1889
-3.8825467	karl
-4.1016197	jørgensen
-4.363495	1890
-3.8623345	niels
-4.343348	minister
-4.4624987	1883
-5.3451676	osvald
-5.055993	helmuth
-4.407784	1894
-4.3440704	1899
-4.891507	organist
-5.142836	erwin
-5.3807416	teaterinstruktør
-4.4129553	1893
-4.253873	svend
-4.5227714	1874
-3.6699433	10.
-4.240818	harald
-5.3390017	insulin
-5.0908613	novo
-4.5032735	1878
-5.333929	tanner
-4.543512	finsk
-4.4779587	statsminister
-4.489637	1881
-5.231128	branner
-4.343348	1903
-4.670767	oluf
-4.8807178	høst
-4.255301	maler
-4.0862403	poul
-5.4049973	holsøe
-4.5046163	1873
-5.4256763	nino
-5.1737933	racerkører
-3.2406585	juli
-3.9555185	george
-4.851859	ungarsk
-4.9127765	kemiker
-5.146751	nobelprismodtager
-4.430485	1885
-5.145442	herluf
-4.692092	tegner
-4.3786554	1888
-4.179932	1916
-4.9131594	montgomery
-4.073763	1920
-4.8028765	astrid
-4.5622115	friis
-4.56857	historiker
-4.137759	knud
-5.2871237	sønderby
-4.2952943	1909
-4.2445784	1913
-4.314731	mads
-4.6442137	clausen
-4.667276	grundlægger
-4.2963104	1905
-3.8400676	robert
-5.3609776	neiiendam
-4.726555	andré
-5.428175	breton
-4.354519	1896
-4.461957	elizabeth
-5.2018876	arden
-4.151853	hollandsk
-4.547452	fysisk
-4.837154	agnes
-4.4473085	1887
-3.9194198	william
-5.158039	falck
-4.003431	direktør
-4.2972364	officer
-5.340023	kompagnichef
-4.9279537	walt
-4.591498	disney
-4.949052	vagn
-4.3888354	bro
-5.3084674	politimester
-4.155382	harry
-5.3390017	beaumont
-4.6112876	udenrigsminister
-5.1682487	angelo
-4.6464863	ingeniør
-4.46277	1875
-4.625263	fysik
-4.3262696	alfred
-4.61725	kemi
-5.4158225	peyton
-4.055482	charles
-4.212081	litteratur
-5.2981286	nelly
-5.2659173	sachs
-4.2500315	fred
-5.2693806	uddeling
-4.9123945	kb
-4.8588963	hallen
-5.314212	svenskeren
-4.282833	bo
-5.144789	europamester
-4.6875143	stopper
-5.374053	italieneren
-4.752206	bruno
-4.138466	vinder
-3.8532035	vm
-5.22168	finalesejr
-4.6886544	vesttyskland
-4.7711077	børge
-4.8349104	krogh
-3.8563156	tredje
-4.2019157	professionel
-4.9295406	boksning
-5.1829576	besejrer
-4.8785915	maurice
-4.7409897	onde
-5.220902	grusomme
-4.460065	originale
-4.0742617	familien
-5.3762712	addams
-4.6512766	slutter
-5.196709	avedøre
-4.557123	bydel
-5.273749	storkøbenhavn
-4.788852	sammenhængende
-5.2871237	boligområde
-4.7101793	hvidovre
-3.9683664	1974
-4.8241754	glostrup
-4.4363184	brøndby
-4.5389605	strand
-5.412184	brøndbyøster
-4.46782	køge
-4.620945	bugt
-4.2079864	bor
-5.1829576	domineres
-4.890053	stationsby
-5.014436	tråd
-3.96374	1972
-3.7051091	gav
-4.6010933	bydelen
-4.332558	70
-4.4169664	ha
-4.0896177	årene
-4.7868447	karakteristisk
-4.172845	udover
-4.746431	huser
-4.6120524	butikker
-5.259922	stationsbyen
-5.1139393	afgrænses
-4.1903863	huse
-5.2781615	rækkehuse
-4.770556	bebyggelsen
-5.3852587	gennemskæres
-4.584438	institutioner
-5.352474	børnehaver
-5.331917	ungdomsskole
-5.3609776	idrætscenter
-5.2224593	svømmehal
-4.4151387	gymnasium
-5.4396014	1970'ernes
-4.772213	krise
-4.250697	sociale
-4.128737	problemer
-4.701159	bolig
-4.7094603	ry
-5.2523336	ghetto
-4.785987	gennemgik
-4.4011397	1990'erne
-5.4434776	forvaltet
-4.765895	tilbud
-4.808555	militært
-4.6593094	ejes
-4.463993	ca
-5.4460816	vedkommendes
-4.3890643	privat
-4.726057	bygningerne
-4.468095	rummer
-4.6563325	boliger
-4.3026457	holder
-4.8701897	lejren
-5.4269238	zentropa
-5.046004	holme
-5.1357493	kunstigt
-5.438317	inddæmmet
-4.363495	1960'erne
-5.099593	vindmøller
-5.0662174	historiens
-4.502976	tilstand
-4.667711	ideer
-5.049134	udnyttelse
-3.6952178	københavns
-5.125643	befæstning
-5.3773847	fugleart
-5.190141	fuglen
-4.9595723	yngler
-4.458047	asien
-4.3896375	indført
-4.216676	australien
-4.445479	zealand
-5.4460816	farvestrålende
-5.207128	træffes
-4.3151174	åbne
-3.7514765	land
-4.3405743	hovedsageligt
-4.1290517	lever
-5.3762712	artens
-4.2314773	stemme
-4.412472	videnskabelige
-4.595716	latinske
-5.4319506	12-14
-4.128926	cm
-4.5497665	hovedet
-4.692092	rødt
-4.6631665	hvidt
-4.7553883	ryggen
-5.2719965	plet
-4.0857844	hvide
-5.1402454	pletter
-4.7749887	yderste
-5.1332006	fjer
-4.864335	undersiden
-4.613394	tværs
-4.8955317	kendetegn
-5.049134	hannen
-5.0857058	mellemste
-4.858558	markante
-5.1500406	spidse
-5.1865344	næb
-3.9106548	sangen
-4.4997134	minder
-5.444778	forsommeren
-5.4513364	fodres
-5.108504	ungerne
-4.856538	insekter
-4.924011	egnet
-4.5953474	samle
-3.9407089	jorden
-4.67517	tilfældet
-5.077805	reden
-4.8195224	bygges
-4.9582963	hunnen
-5.0549307	mos
-4.6514864	hår
-5.2746277	kuld
-4.6670585	æg
-4.7618237	lægges
-5.142187	4-6
-5.444778	13-14
-4.163276	oftest
-4.5794387	sent
-5.205624	forældrenes
-4.696253	kro
-4.6939363	forlader
-5.444778	14-15
-4.670767	lokalt
-5.119444	sjældnere
-4.506263	åbent
-4.67517	landskab
-4.9299383	udkanten
-4.588406	skove
-4.8170614	haver
-4.452578	arten
-5.321992	byers
-5.435759	industriområder
-5.144789	bestanden
-5.330914	trækfugle
-5.245698	overvintrer
-4.917777	landene
-4.844608	nordsøen
-3.4256663	hele
-3.93083	nær
-4.0863543	centrale
-4.9139256	sibirien
-4.1368613	følger
-4.2183733	grænsen
-3.7969306	dens
-5.0449657	nordlig
-4.3566394	afrika
-5.2853165	madeira
-5.250665	kanariske
-5.417042	azorerne
-4.18327	faldt
-4.6709857	skyldtes
-5.1894174	landbrugets
-4.8170614	øgede
-4.0310054	sidst
-4.373874	1980'erne
-3.95396	igennem
-4.665757	markant
-5.330914	formentligt
-4.9747424	overdrev
-4.368053	levende
-5.009152	hegn
-5.4256763	2000-tallet
-4.2933607	gået
-4.3396535	kunstnere
-4.6370606	antonio
-5.331917	vivaldi
-3.736899	skrev
-4.468095	koncert
-5.134473	d-dur
-4.9201045	fløjte
-4.8416758	tilnavnet
-4.7075486	il
-5.437036	fløjten
-5.414606	efterligner
-5.1332006	fabritius
-4.6738443	malede
-4.2849	billede
-5.217032	1654
-3.6362786	spiller
-3.9027355	rolle
-4.5004525	romanen
-5.046004	donna
-5.190141	schwerin
-3.6111612	tyskland
-3.6876597	frankrig
-4.984556	rede
-4.725063	robinson
-5.4002714	profiles
-5.104323	birds
-4.8260508	britain
-3.1635783	&
-4.8505316	ireland
-4.085955	research
-4.3581295	report
-5.3482842	407
-3.8953986	j.
-5.1937776	systematiske
-4.5106344	ordbog
-5.00111	132
-3.8944445	arkiveret
-3.8331041	red
-5.1894174	hvass
-5.331917	dyreverden
-5.143486	rosenkilde
-5.0101075	bagger
-3.9365687	1978
-5.386395	87-423-0076-2
-4.64339	tommy
-4.529048	oversigt
-4.494573	fugle
-4.252784	forening
-5.1493807	ornitologisk
-5.177295	archive.org
-4.7159743	benny
-5.45266	génsbøl
-4.8195224	nordens
-3.898385	1987
-5.1614156	billie
-5.141539	holiday
-4.216599	1915
-4.973421	baltimore
-4.1695166	1959
-3.5288644	hendes
-4.8109684	hemmelighed
-4.882854	enestående
-4.5282583	evne
-4.4314938	årtier
-3.95649	gå
-3.5994058	bedste
-5.031187	melodier
-5.027685	teksterne
-3.9970691	ord
-5.242418	fremstå
-5.215493	lysende
-4.9291434	poesi
-3.9179466	sang
-5.2026324	afløstes
-4.0882406	efterhånden
-5.194509	stemmen
-4.436829	bar
-4.943681	vidnesbyrd
-3.7627537	liv
-4.6055946	bevarede
-4.8814287	evnen
-4.7006893	bære
-4.7629056	erfaring
-5.3796196	selvbiografien
-4.521837	lady
-5.352474	sings
-4.58895	blues
-4.008645	mor
-3.7792246	far
-4.2908874	giftede
-5.3431025	atten
-5.185817	seksten
-3.737154	jeg
-3.272891	tre
-5.176593	moren
-5.333929	sadie
-5.051759	tretten
-3.7507386	datter
-5.366378	nitten
-4.87437	faren
-5.136389	clarence
-3.6766415	skrevet
-4.207308	sagde
-4.714761	læst
-3.8548405	langt
-4.191184	rejste
-4.853858	nordpå
-3.9776802	bedre
-4.857547	betalt
-4.7537937	datteren
-4.9725423	overlod
-5.0020485	slægtninge
-4.1833415	lod
-3.962967	særlig
-4.6055946	job
-5.394436	vaske
-4.4226203	femte
-4.326468	klasse
-4.54597	opdagede
-4.8247995	løbe
-5.2271667	prostituerede
-4.818598	betalte
-3.9853864	spille
-5.3609776	voldtaget
-5.0362396	nabo
-4.1752176	slog
-4.973861	døren
-4.526998	manden
-4.4488826	dømt
-5.2063756	straffet
-4.013585	sendt
-4.8528576	katolsk
-4.675834	institution
-5.0689483	klædt
-5.205624	uniform
-5.055993	frataget
-4.511848	vælge
-4.4387507	bestemte
-5.1724005	teresa
-4.817368	reglerne
-4.8374753	hjemmet
-5.1894174	kjole
-4.8449345	toget
-5.231925	harlem
-4.2480407	1929
-4.209801	kvinde
-5.242418	toilet
-4.271418	optrådte
-5.417042	hudfarve
-5.177999	mørkere
-5.0834336	ankomsten
-4.328356	sad
-4.3747597	politiet
-5.3259344	stormede
-4.428474	pige
-4.681186	opgav
-4.815836	efternavn
-4.848548	kvinderne
-3.9209368	familie
-4.907078	løsladt
-4.744869	siddende
-5.353528	varetægt
-3.4542298	fire
-4.086925	måneder
-4.876124	køkken
-4.856538	tyve
-3.5220609	john
-4.265347	hørte
-4.814004	synge
-4.1350074	mente
-3.507365	største
-4.7882776	hørt
-5.2633376	goodman
-5.1836705	teddy
-4.4743204	wilson
-4.9544907	duke
-4.2473793	ben
-5.188695	webster
-4.0993805	måske
-5.3796196	vigtigst
-5.2633376	lester
-4.3729906	young
-4.3075533	forblev
-4.864335	nære
-4.212233	venner
-4.11787	livet
-4.2990937	skabte
-4.15	1939
-5.0549307	strange
-5.4002714	fruit
-5.2944293	mærkelig
-4.876124	frugt
-4.909728	abel
-4.237898	handler
-4.5907683	1930'erne
-5.0840006	hængt
-5.156696	ku
-5.178704	klan
-5.1758914	sydstaterne
-5.2490034	jævnlig
-5.126268	nægtet
-5.321992	fremføre
-5.1019516	klubberne
-4.652325	52
-4.3182187	street
-5.2755084	kassen
-3.8350184	står
-4.3829246	straks
-4.7949324	syntes
-4.2380595	vis
-4.8442807	handlede
-4.6687994	fars
-4.263971	pga
-4.816142	fronten
-3.7969306	verdenskrig
-4.2728176	teksten
-4.6521153	dårlig
-4.8216877	turné
-4.453109	texas
-4.7928963	sygehus
-4.592594	nægtede
-5.138313	patient
-3.580761	døde
-5.193048	lungebetændelse
-5.034211	afdelingen
-5.107305	farvede
-4.9074554	dallas
-4.0688047	forsøg
-5.1441374	glatte
-4.2838206	kommet
-5.0266895	brænde
-5.3796196	tangen
-4.7857013	pigen
-4.2089686	solgte
-5.366378	cigaretter
-4.487621	blomster
-5.1675606	stukket
-5.2633376	skaden
-5.1281476	varemærke
-5.332922	blomsten
-5.0635033	håret
-4.625263	fulde
-5.17941	sømænd
-5.1019516	pels
-5.392123	baren
-4.968176	smed
-5.0428967	rasende
-3.8401647	klubben
-4.234034	bad
-5.410978	thelma
-5.1661873	carpenter
-4.866049	løs
-3.358945	sine
-5.17941	kærester
-5.2746277	knive
-5.235931	knuste
-5.245698	flasker
-4.5330176	indledte
-5.041866	monroe
-4.104524	1941
-4.4359355	joe
-3.263391	ham
-4.426722	engang
-4.917004	slippe
-5.1091046	lejligheden
-4.6397038	delte
-3.987607	hjem
-5.0337057	bordet
-4.9131594	tænke
-3.715692	mand
-4.793477	fortid
-4.882854	drejede
-3.9799511	nok
-5.185817	prostitution
-4.0475335	bedst
-4.555272	beskrev
-4.304527	ægteskab
-4.552928	aften
-4.83523	forklare
-4.517352	sagt
-4.599417	tag
-4.164435	1947
-3.6601288	filmen
-4.933534	orleans
-4.5205956	numre
-4.203631	louis
-4.0551634	band
-3.6327522	gift
-3.9572945	flyttede
-4.7724895	guy
-5.2685122	narkotika
-5.0744624	medtaget
-4.444047	publikum
-4.864335	vente
-4.5794387	scenen
-5.1614156	insisterede
-5.4460816	klausul
-4.8747206	kontrakten
-4.8482184	betaling
-4.2265663	mødte
-5.102543	tide
-4.996448	simone
-5.3773847	beauvoir
-5.162094	gæsterne
-4.8785915	smuk
-4.6151247	permanent
-4.9232273	glat
-5.418265	blankt
-4.760475	ansigt
-5.1655025	støbt
-5.0651298	mørkt
-4.2160606	metal
-4.7152457	synger
-4.230046	siger
-4.7607446	sjælden
-4.698816	arresteret
-5.1176014	opbevaring
-5.3200336	heroin
-4.0261126	otte
-4.421755	virginia
-5.1396003	oplyser
-5.254009	cent
-5.333929	lommen
-3.6205425	m
-5.0972476	vejede
-4.773321	77
-5.1546884	kilo
-4.6320224	erhverv
-4.9677415	vidne
-5.003931	skilte
-5.089136	voldelige
-5.185817	levy
-4.8708835	skaffede
-4.463177	lejlighed
-5.0101075	queens
-5.0817375	rund
-5.0470448	seng
-4.9796214	lignede
-5.3785005	dove
-4.924404	dommen
-3.8727064	city
-5.0840006	inddraget
-4.610143	tolv
-4.737655	optræde
-4.2198443	klubber
-4.1976943	klub
-4.391937	gengæld
-3.5641673	alt
-4.6401114	tjente
-4.6362505	håb
-5.2990584	forsoning
-5.4269238	jagede
-4.1710386	væk
-4.4689198	besøgte
-4.121071	san
-4.5152035	francisco
-5.45266	hotelværelse
-5.207882	pakke
-5.4097753	opium
-5.44089	pibe
-4.589858	hurtig
-4.9291434	forklarede
-4.0235386	gjort
-4.3775387	white
-4.433772	udtalte
-4.1783786	satte
-4.426098	klaver
-4.1105123	my
-4.908969	slap
-5.2944293	anklagerne
-5.239974	gemte
-5.4460816	mink
-5.04861	hunden
-4.1032767	ad
-4.5606785	forsvandt
-3.993462	altid
-4.1688952	1952
-5.389823	mckay
-4.51766	forbindelser
-5.317113	mafiaen
-5.270251	separeret
-5.254009	voldelig
-4.1659393	forsøgte
-4.7323217	sikker
-4.4511228	slå
-5.2582245	pianisten
-5.1829576	observerede
-4.409941	parret
-4.8505316	greb
-4.6024013	ramte
-4.9224443	gulvet
-5.4539876	værelset
-3.9390805	give
-4.0085497	ene
-4.8326783	øjeblik
-4.5147443	forbi
-4.0163436	næste
-4.091518	forlod
-4.243676	ni
-4.0256658	vendte
-4.98546	lena
-5.0434127	horne
-5.0062966	huske
-4.692322	talt
-4.77471	hunde
-4.0182896	viste
-5.270251	kæledyr
-4.6586695	nød
-4.599975	angiveligt
-4.97873	halen
-5.4579954	bokseren
-4.8192143	mister
-4.80169	lide
-4.863993	sidde
-4.7152457	høre
-4.740732	vidste
-4.3907857	parken
-4.7075486	mødt
-5.3410473	pusher
-5.3609776	pulver
-5.317113	rygtet
-5.444778	forlød
-4.7089815	hund
-3.9322276	holdt
-5.351423	gin
-5.1872535	cellen
-4.7438316	philadelphia
-4.1582665	1956
-5.4396014	chihuahua
-4.853524	indsatte
-5.386395	vågne
-5.0020485	opholdet
-5.4566555	teltet
-5.259922	ryge
-4.2481236	midt
-4.3836026	natten
-5.2498336	ringede
-5.2109103	sagfører
-5.188695	klagede
-5.4002714	genere
-4.1693096	mig
-5.447389	rytmen
-4.8377967	forkert
-4.6306224	politi
-5.315177	enes
-4.8715787	behandles
-4.3408813	fængsel
-5.2473474	vagter
-4.3252797	udenfor
-4.7711077	læste
-5.108504	salmer
-4.9983068	biograf
-4.721848	religiøs
-5.1865344	ægtemand
-4.618802	troede
-4.1931486	gud
-4.3101234	sagen
-4.9059467	vurdering
-4.987272	forlangte
-4.750623	øl
-4.403383	sætte
-4.6382785	ild
-5.270251	koma
-5.0372567	veninde
-5.00111	annie
-4.632223	ross
-5.212433	begravelsen
-4.253957	kone
-5.1487217	arve
-4.305281	500
-4.724071	dollars
-5.353528	mitt
-4.697183	hjerte
-4.741505	130
-4.295479	forlaget
-4.052517	oslo
-4.4055185	about
-5.103729	singer
-3.8496838	|
-3.9676714	american
-4.9014525	masters
-5.195241	pbs
-5.078925	143
-5.1493807	153
-5.0806103	146
-5.3113303	clean
-4.9014525	living
-5.0382767	165
-4.375203	site
-4.892236	@
-4.7817235	sony
-5.330914	bmg
-4.957872	discography
-4.105417	#
-4.7978578	complete
-3.921522	music
-5.2048745	pure
-5.330914	vintage
-5.123774	brief
-4.540094	biography
-4.6003475	jazz
-4.907078	african
-5.428175	registry
-5.2790494	essential
-5.2659173	recordings
-4.7575226	stuart
-5.2490034	nicholson
-5.2432356	timeline
-3.5905385	’
-4.9251904	small
-4.986365	links
-5.3979278	modkraft.dk
-3.9721644	byer
-3.4963782	tyske
-4.671863	100.000
-4.452313	listen
-4.89443	indbyggertallet
-3.5354714	2000
-3.8946643	areal
-5.184385	befolkningstæthed
-5.389823	duisburg
-4.255975	hed
-4.1320195	1935
-4.1638894	opstod
-4.5330176	byerne
-3.6752005	begge
-5.244055	storbyer
-3.4897726	4
-4.202214	1928
-4.1194057	1930
-5.2473474	mönchengladbach
-4.226251	1933
-5.358836	udtalen
-4.2730803	münchen
-4.0441566	1960
-3.6940377	6
-5.371846	chemnitz
-4.186203	1953
-3.790794	7
-4.0615263	1940
-4.007312	a.
-5.403811	indlemmelsen
-4.2350774	1951
-3.9620662	berlin
-4.6787252	hamburg
-4.8198314	köln
-4.6174436	frankfurt
-4.7683563	stuttgart
-4.992295	düsseldorf
-5.0222383	dortmund
-5.231128	essen
-4.6820846	bremen
-5.0332007	flerårig
-4.750097	plante
-5.2093935	vest-
-4.143121	mm
-4.523707	gule
-5.0908613	kronblade
-4.7730436	vedvarende
-4.982755	krog
-4.4925337	spidsen
-4.6927824	hænger
-5.3841248	forbipasserende
-3.9406273	gammel
-4.9232273	tykke
-5.2263784	indvendigt
-4.0107965	røde
-5.346204	jordstængel
-5.2676454	løvskove
-5.0316896	krat
-3.5803695	bebyggelse
-5.1231527	blomstrer
-4.642568	signe
-4.6143546	frederiksen
-4.8677692	al.
-4.553429	flora
-4.079227	gyldendal
-5.025201	8702112191
-4.35845	arne
-4.9729815	anna-lena
-4.986365	anderberg
-4.9690456	virtuella
-4.965577	floran
-4.9900045	naturhistoriska
-4.9913774	riksmuseet
-4.818598	forkortelse
-4.4242315	business
-4.8336334	services
-4.7006893	udvikler
-4.9599986	løsninger
-4.491083	ledende
-5.2990584	leverandører
-5.1981826	tilknyttede
-5.1031356	fusioneret
-3.934674	norske
-4.133988	virksomhed
-5.3818665	nets
-5.0101075	holding
-5.372948	datterselskabet
-5.3113303	teller
-5.3094196	hovedkontoret
-4.933133	ballerup
-4.833315	dean
-4.3647923	r.
-4.5792613	ray
-3.9423432	1945
-5.29999	everett
-4.6789484	pennsylvania
-5.214726	produktiv
-4.2902484	populære
-5.212433	desperat
-4.9612794	fattigdom
-4.3624163	state
-4.360482	college
-3.940016	startede
-4.327858	high
-4.223818	school
-5.160062	fritid
-4.0545797	roman
-4.1801443	star
-5.142836	quest
-3.9789255	1968
-4.602776	erne
-4.7409897	udgive
-5.1500406	konventionelle
-3.987698	eget
-4.9955215	oplyst
-5.3431025	redaktører
-4.936755	overbevist
-4.0321617	skiftede
-4.821068	genre
-4.7490463	ofre
-5.314212	tilbageslag
-4.8796535	salget
-4.6126266	fans
-4.1629357	k
-4.866392	aaron
-5.231925	wolfe
-4.329952	brian
-4.3345733	hill
-5.188695	leigh
-5.2711225	nichols
-4.8896904	owen
-4.1823444	west
-5.346204	paige
-4.650858	romaner
-4.8602495	udgives
-4.5517607	rigtige
-3.914017	1980
-4.773876	ligget
-4.1418877	styrke
-5.1019516	blande
-4.95407	fantasy
-4.951554	humor
-5.066762	ligheder
-5.077805	hyppige
-4.957024	strukturer
-3.9762173	værker
-5.224807	klassificeres
-4.1756377	science
-4.883569	fiction
-4.4563055	forsøger
-4.0819845	troværdige
-5.141539	forklaringer
-5.0645866	fantastiske
-4.526369	begivenheder
-4.932332	interessant
-5.0188074	tilføje
-5.1553564	citater
-3.906074	bog
-4.5185847	eksisterende
-5.1001816	manual
-5.283517	citerede
-5.3249454	inskriptioner
-4.7070723	trykt
-4.5699573	oplag
-5.244876	startende
-5.290761	taking
-4.3023643	t.
-4.153115	s.
-5.2383523	eliot
-4.3123255	optræder
-4.821068	handlingen
-4.04483	bogen
-4.1836267	længe
-4.9021983	fan
-3.9372964	art
-4.6018405	bell
-4.0720487	radio
-4.957024	gæst
-4.9978414	rapporteret
-4.409821	indeholdt
-4.320951	karakter
-5.059732	hændelse
-4.6491876	øjeblikket
-4.3320556	californien
-5.0662174	gerda
-4.1457286	life
-4.576784	good
-5.402628	lessons
-5.119444	kolonne
-4.0132957	news
-4.6203594	nyheder
-4.0579324	1965
-4.9743013	novelle
-4.483047	udgivelse
-3.8311667	1988
-4.022651	1969
-5.0149193	fear
-4.1526494	that
-4.7438316	fall
-4.6723027	dream
-4.5822883	machine
-4.5909505	dark
-5.046004	symphony
-5.003931	woods
-5.4244323	haunted
-4.532221	earth
-4.80169	hell
-4.878238	gate
-5.1923194	soft
-4.81218	come
-5.22168	dragons
-5.273749	crimson
-5.2582245	witch
-5.350374	demon
-4.9101076	child
-5.0337057	pseudonymet
-5.1109114	legacy
-4.8918715	terror
-5.138313	chase
-4.7459097	children
-4.4982386	storm
-4.6655407	summer
-5.125019	darkness
-4.8377967	soul
-5.388677	flesh
-3.961895	1973
-4.6705475	blood
-5.188695	risk
-4.64052	dance
-3.8693023	with
-4.9127765	devil
-4.2444143	oversat
-4.8223085	inger
-3.6535947	1998
-3.5804763	on
-3.9863367	1975
-5.1182146	forfulgt
-4.443787	døden
-5.4244323	shattered
-5.0434127	among
-4.14501	us
-4.534776	after
-4.436829	last
-4.549601	race
-5.1169887	strike
-4.8701897	deep
-4.4737635	anthony
-4.190459	north
-3.9738338	1976
-5.1815352	kuppet
-4.521837	santa
-4.935948	monica
-4.548112	invasion
-4.554266	long
-5.169628	sleep
-5.2650557	nightmare
-5.027685	journey
-4.7508864	wall
-4.650231	fanget
-4.798151	isen
-3.731197	1995
-4.2577486	night
-3.749555	1992
-4.9591465	face
-5.4500165	syner
-4.901825	vision
-3.935439	1979
-5.089136	midnight
-4.2454004	stemmer
-4.730307	voice
-4.5678782	øjne
-5.0700455	mørket
-4.876476	eyes
-5.374053	masken
-5.2935095	mask
-4.2929015	house
-5.1668735	thunder
-3.9321077	1983
-5.257378	skygger
-3.8439343	1989
-4.186921	kim
-5.2582245	langer
-5.310374	tjenere
-5.099593	twilight
-3.9168258	1985
-5.1851	door
-4.31783	uk
-3.7825556	1993
-3.8888707	1986
-5.228747	flammer
-5.342074	eksperimentet
-5.303737	attila
-4.6512766	miss
-5.4207215	alis
-5.408576	lynet
-5.239974	lightning
-5.1526904	midnat
-5.3556433	ondskabens
-4.7268043	place
-5.140892	dødens
-3.79506	museum
-4.892236	dragon
-5.164136	tears
-4.5295224	mr.
-5.003931	murder
-5.2063756	mørkets
-4.715003	floder
-5.21935	rivers
-4.6521153	heart
-4.803768	winter
-4.0013156	moon
-5.257378	intensitet
-3.7120633	1996
-4.7940583	ukendte
-4.4314938	veje
-5.45266	highways
-4.9536495	beautiful
-4.502381	death
-4.6793947	overlevende
-5.382994	sole
-5.2871237	survivor
-4.992754	birgit
-5.240787	dalgaard
-4.7708316	frygt
-5.046524	nothing
-5.44089	dræbende
-4.578729	tanker
-5.4194913	false
-5.0357313	memory
-5.4158225	grib
-5.050707	jytte
-4.5680513	front
-3.5391443	2001
-5.0828676	øjet
-4.7096996	rækker
-3.8648274	from
-5.254009	corner
-4.4803543	his
-5.051233	eye
-4.730307	himlen
-4.1300597	one
-4.844608	away
-4.895164	heaven
-4.270894	månens
-5.136389	skær
-4.5499325	light
-5.089136	odd
-3.7228193	thomas
-5.3249454	295
-5.0629625	ansigtet
-5.250665	dommedag
-4.358023	mogens
-5.3279195	wenzel
-5.0444474	andreasen
-5.2514987	frankenstein
-5.2981286	fortabte
-3.5335665	søn
-4.8043633	son
-3.369653	2006
-5.1225324	deadline
-4.027107	christensen
-5.0874176	nattens
-4.5368633	two
-5.009152	evigt
-4.951554	forever
-5.4256763	husband
-4.8907795	skeel
-4.6442137	broder
-5.0728006	brother
-3.30159	2007
-4.756988	three
-4.5365415	dead
-5.0920157	alive
-4.485185	menneske
-5.2523336	odds
-5.2548485	mareridt
-5.262481	hours
-4.351778	we
-4.985008	trust
-5.42943	darkest
-5.1560254	evening
-4.349263	year
-4.3783197	your
-4.099792	me
-3.8346987	officielle
-4.739191	kemisk
-4.8247995	ilt
-5.264196	atmosfærisk
-4.8929663	temperaturer
-4.5423694	°c
-4.7797484	stoffet
-3.9972548	dets
-4.100734	høje
-5.403811	smeltepunkt
-4.1298704	udgør
-4.2336335	sten
-5.4319506	ovne
-5.283517	m.v
-5.4319506	basisk
-4.5504303	populært
-5.4244323	2010'erne
-4.0348887	kina
-4.546299	virker
-4.9232273	spiser
-5.031187	optages
-4.8541923	tilbageværende
-5.21935	hæver
-4.816448	smule
-4.9814095	middel
-5.190141	sure
-5.0581255	kroppens
-5.22168	reguleres
-5.4332166	nyrerne
-5.0602684	giftige
-5.442182	juveler
-5.4219546	ædelsten
-4.611097	ægte
-4.3041496	stykke
-5.3094196	mineral
-4.155917	runde
-5.1717057	ovale
-4.5512614	osv.
-4.6586695	hårde
-5.056525	bløde
-4.6274385	materialer
-5.1865344	æstetiske
-5.3556433	rav
-5.295351	beskrevne
-4.909728	klassificeret
-5.0689483	vurderes
-5.346204	renhed
-5.2981286	colour
-5.121913	cut
-5.259922	diamant
-5.353528	krystal
-5.022731	rubin
-5.3567047	rødlig
-5.4002714	jern-
-5.340023	beryllium
-4.9267673	oh
-5.0645866	metaller
-4.3298516	muligvis
-5.125643	brint
-4.104762	meste
-5.418265	jordskorpen
-5.394436	kvarts
-5.038788	lilla
-5.4566555	gullig
-4.788852	rosa
-4.003289	+
-4.471266	lag
-5.04861	aluminium
-5.347243	granat
-5.011066	alf
-5.0261927	mg
-5.0834336	fe
-5.434486	stene
-5.2416015	diamanter
-4.9523907	organiske
-5.279939	perler
-4.5373464	naturen
-4.592411	detaljer
-5.075574	afsløre
-5.2481747	syntetiske
-4.7697296	glas
-5.262481	plast
-5.2498336	porcelæn
-4.8232408	kunstige
-5.0972476	billige
-4.56857	fysiske
-4.885001	afslører
-5.1206765	komplicerede
-5.2755084	finere
-5.2432356	ædle
-5.3556433	hårdhed
-5.335951	hårdeste
-4.170208	ti
-4.783708	skala
-5.410978	karat
-5.444778	jordtyper
-4.8403788	gallery
-5.128776	physical
-5.2935095	properties
-5.3796196	sammensmeltning
-4.475856	elektrisk
-4.599975	metoder
-4.8304577	stål
-5.4553194	legering
-3.6696374	sted
-5.0413513	brænder
-4.781441	almindeligvis
-5.212433	tilført
-5.220125	o2
-4.7828565	herved
-4.3640347	opnå
-5.428175	3.200
-4.4659023	co
-4.0710564	stand
-5.291675	tilføres
-4.762094	udføres
-4.500601	metode
-5.006771	mma
-5.3180842	arc
-5.283517	frigives
-5.2650557	belagt
-4.52747	masse
-5.177999	afgiver
-4.7171917	gas
-5.176593	varmen
-4.9319324	kernen
-5.2667804	smelter
-4.222411	ellers
-5.435759	argon
-5.0575914	helium
-5.403811	mag
-5.2295394	active
-4.945739	co2
-4.2526164	hvorfor
-4.3979726	sidstnævnte
-4.7828565	tit
-4.07962	fremføres
-4.7186565	føres
-5.3785005	flasken
-4.6629515	holdes
-4.8439546	hånden
-4.703987	automatisk
-4.9204936	opvarmning
-4.4109035	kontakt
-5.3762712	emnerne
-5.0149193	trykket
-4.9703536	strømmen
-5.235931	forholdsvist
-4.3471785	punkt
-4.4939895	emner
-4.6090016	naturligt
-4.52747	skaber
-4.876124	net
-4.6573935	rammer
-5.1974454	fremgangsmåde
-4.740732	punkter
-4.756721	samlingen
-5.0885625	wiktionarys
-4.5789065	definition
-4.9936748	løvfældende
-5.220125	vækstform
-4.8276196	træet
-5.220902	leverandør
-4.8889656	stammen
-5.4073796	cylindrisk
-5.358836	grenene
-4.7905807	svære
-4.575199	modsatte
-5.2523336	elliptiske
-5.234324	helrandede
-4.9204936	oversiden
-5.3841248	græsgrøn
-4.9220533	blomstringen
-5.0857058	indledes
-5.234324	leveår
-4.3590903	umiddelbart
-5.4256763	behageligt
-5.428175	duftende
-4.297051	sidder
-5.078925	endestillede
-5.3210115	spiselige
-4.810364	produceres
-4.4779587	mængder
-4.9751835	rodnettet
-4.4446974	kraftigt
-4.531108	årlig
-4.8420005	tilvækst
-4.5415554	48
-4.4727902	36
-4.8929663	cm/år
-4.390441	hjemme
-5.008198	burma
-5.1338363	laos
-4.606727	thailand
-4.864335	malaysia
-5.25569	naturaliseret
-4.6765	overalt
-4.9677415	tropiske
-4.761014	blandede
-5.3493276	veldrænet
-4.7191463	bund
-5.006771	velkendte
-4.0042324	lokale
-5.164819	anvendelser
-4.8025794	medicinsk
-5.388677	udrensning
-5.3652925	svækkelse
-5.163454	feber
-5.280831	hovedpine
-4.581931	bladene
-4.993214	barken
-5.406187	veddet
-5.1206765	diabetes
-5.2498336	rødderne
-5.4073796	venligst
-5.217803	forbehold
-5.4566555	tallerken
-5.015888	tungt
-5.374053	harpiks
-4.346555	råd
-5.3122888	fremkalder
-5.291675	anciennitet
-4.583899	begreb
-4.3718886	angiver
-5.0575914	persons
-5.147407	arbejdsmarkedet
-4.3232083	begrebet
-4.742279	refererer
-4.070781	ansat
-4.0961018	stilling
-4.00917	person
-4.0372763	års
-5.169628	arbejdsplads
-5.131932	relevant
-4.784561	løn
-3.95844	indenfor
-4.9729815	ansattes
-4.983205	almene
-3.543796	medlem
-5.4256763	forsikringer
-4.365117	beskriver
-4.185486	antallet
-4.669018	registreret
-4.471127	bil
-5.3180842	1503
-5.2263784	vekslende
-4.560339	held
-5.3818665	hanseforbundet
-5.4269238	tiltræder
-4.6745067	pres
-4.2337136	spanske
-4.034585	styrker
-5.4073796	besætter
-4.784561	napoli
-4.86502	handelen
-4.7459097	kolonier
-4.9694815	sevilla
-4.1397543	omfattende
-4.5145917	beskytte
-5.213196	guld-
-4.68186	sydamerika
-4.3986745	portugal
-5.3094196	zanzibar
-4.224131	peder
-5.1627736	skram
-4.5750237	admiral
-5.3084674	1581
-5.447389	palladius
-4.2688055	biskop
-5.233523	1560
-4.391246	ferdinand
-4.1317024	kejser
-4.80496	tysk-romerske
-4.0823803	rige
-5.3451676	1564
-3.6781538	12.
-5.2263784	1559
-5.262481	profet
-4.3693643	læge
-5.334939	1566
-5.2432356	sture
-5.3631296	rigsforstander
-4.1305013	alexander
-4.4179444	pave
-5.1614156	pius
-4.121442	iii
-5.352474	enårig
-5.2514987	urteagtig
-5.240787	forgrenet
-4.9805145	opret
-5.245698	overhængende
-4.4046865	vækst
-5.280831	plantens
-5.1655025	stænglerne
-5.214726	tværsnit
-5.314212	spredtstillede
-5.403811	uligefinnede
-5.4207215	2-5
-4.8785915	tænder
-5.220125	enkeltvis
-5.2871237	bladhjørnerne
-5.418265	stilke
-4.957872	formet
-4.785131	typiske
-5.386395	violette
-5.4049973	uregelmæssigt
-5.245698	formede
-5.1306667	dybtgående
-5.3567047	pælerod
-5.351423	0,50
-4.409461	75
-5.1614156	målene
-5.118829	beregning
-4.340369	landbrug
-5.0874176	afgrøder
-4.8005075	dér
-4.289428	bør
-4.86708	opmærksom
-5.45266	floraen
-5.0434127	stejle
-5.344134	tigris
-4.5955315	øvre
-4.0508323	østlige
-4.444047	tyrkiet
-5.367466	ærter
-5.4396014	rynket
-3.6963317	stammer
-3.9524488	vestlige
-5.4539876	importeres
-4.9694815	proteiner
-5.2685122	tørrede
-5.371846	koges
-4.8502007	1-2
-5.106707	spises
-5.408576	nedsættes
-5.4231915	dl
-4.2821164	80
-4.6435957	gram
-5.417042	kogte
-5.4194913	b1
-4.4026732	svarer
-5.188695	275
-5.392123	kumar
-5.3556433	identification
-5.1822457	molecular
-4.8814287	variation
-5.4269238	phylogenetic
-5.418265	theoretical
-5.262481	applied
-5.25569	genetics
-4.960852	rocky
-4.951972	mountains
-5.160062	bjergkæde
-4.4644017	nordamerika
-4.9236193	benævnes
-4.648979	undertiden
-5.0662174	bjergkæden
-5.109706	kontinentale
-4.0977964	canada
-4.806454	nordligste
-4.245812	british
-4.6182194	columbia
-4.0585203	højeste
-4.7675343	mount
-4.9173903	colorado
-4.7874174	mountain
-3.8279147	national
-3.9801297	park
-4.057345	dannet
-4.552928	55
-4.7629056	bjergene
-3.949276	tæt
-5.2925916	calgary
-5.21396	alberta
-5.1031356	denver
-4.811877	3000
-5.019785	lufthavne
-4.796685	metropolitan
-4.545806	airport
-5.1682487	pol
-4.5110893	geografisk
-5.3451676	planets
-5.2719965	sydpolen
-5.4244323	poler
-5.1829576	overens
-5.077805	magnetiske
-4.631422	holstebro
-4.5257416	midtjylland
-3.8800569	valgt
-4.2868867	borgmester
-4.5492697	afløst
-5.322974	østerby
-4.8094583	socialdemokraterne
-4.869497	sammenlægning
-4.5392838	flg
-5.290761	1970-2006
-5.3609776	vinderup
-4.767808	inklusiv
-5.4194913	mogenstrup
-4.199245	krav
-4.9067	afstemning
-4.8907795	borgerne
-4.029852	valgte
-4.5204406	skive
-3.3610764	2015
-5.109706	folkeafstemningen
-4.075484	afholdt
-4.8329964	folkeafstemning
-5.4579954	kommunesammenlægning
-4.963423	struer
-4.0986757	endte
-4.7961	nej
-4.065585	kommuner
-4.7686305	kategorien
-4.7928963	kommunale
-5.389823	nøgletal
-5.1989207	økonomi-
-5.0960793	indenrigsministeriet
-5.418265	macht
-5.3875346	frei
-4.408382	rent
-5.191592	bogstaveligt
-5.1682487	nazi-tyskland
-5.334939	romaer
-5.2746277	koncentrationslejre
-4.3214407	heinrich
-5.4207215	nationaløkonom
-4.425724	benyttede
-4.6362505	1845
-4.4955964	værket
-5.4097753	geist
-3.8979783	und
-4.715003	vidner
-5.0908613	einer
-4.128674	w.
-4.700924	57
-4.6407247	færøernes
-5.313249	fugleliv
-4.200801	havet
-4.246224	færøerne
-4.7786236	hjørne
-4.8365116	fastlandet
-5.4434776	golfstrømmen
-4.4870467	dominerende
-4.230284	kraft
-4.9498844	usædvanlig
-5.1703196	fuglearter
-4.6685815	54
-5.4566555	ruger
-4.456974	øerne
-5.4553194	havfugle
-4.5277853	delvist
-4.907078	havets
-4.577844	klare
-5.0700455	udfordring
-5.2607737	øgruppe
-4.6037135	færøske
-5.3279195	7-8
-3.917096	par
-4.984556	formodes
-5.191592	opholde
-4.86502	ankomst
-5.4244323	færingerne
-5.138313	fejret
-3.8321185	musik
-4.5103316	samtlige
-5.228747	undgås
-5.103729	fuglene
-5.2889385	observeres
-5.3852587	mykines
-5.0326967	suðuroy
-4.343967	holm
-5.4513364	kikkert
-5.3027973	forstyrret
-5.342074	næbbet
-4.617637	fyldt
-5.225592	observere
-4.416478	relativt
-5.4513364	skúvoy
-4.665974	kap
-5.051759	lunde
-5.428175	nólsoy
-5.4332166	vestmanna
-3.7309203	v
-5.108504	u.
-4.6863775	tórshavn
-4.7800303	overblik
-5.4014482	begiver
-4.4716806	hundrede
-4.5362196	overvejende
-5.024211	fugtige
-4.6995173	meters
-4.7216015	mellemrum
-3.8456676	ligesom
-4.8498697	ankommer
-5.1710124	æggene
-5.428175	yngletiden
-5.358836	dykker
-5.303737	skrig
-5.1061096	4-5
-4.8528576	flyver
-5.00346	farvande
-4.461957	vinteren
-4.377093	irland
-4.624672	islandske
-5.350374	maj-juni
-4.5277853	lægger
-4.81829	fremgang
-4.5068636	kraftig
-5.0862756	nedgang
-5.1402454	årsagerne
-5.0984187	milde
-5.105513	vintre
-5.185817	klarer
-4.4867597	sikkerhed
-5.1091046	bestand
-4.7700047	tæller
-4.4079037	1000
-4.8355503	forår
-5.011066	efterår
-3.9340713	vej
-5.4002714	nordfrankrig
-4.9498844	antagelig
-5.3431025	ordsprog
-5.217032	leger
-5.1614156	ødelægger
-4.6266465	freden
-5.2063756	5-6
-4.9440913	fin
-5.448701	kugleformet
-5.1851	ugers
-4.783708	flyve
-5.217032	2½
-5.3249454	uges
-4.94286	fugl
-4.910488	foretrækker
-4.9279537	krydse
-4.4618216	hav
-4.8397317	sund
-3.9439428	komme
-4.9003363	bygd
-5.235127	vágur
-4.3051867	skib
-4.5074644	herfra
-4.6440077	spredte
-5.4244323	talrig
-5.382994	ynglefugl
-4.6286297	søger
-4.8073535	føde
-4.3248844	nærheden
-4.424107	kysten
-5.3762712	frodig
-5.1019516	indsamlede
-4.631822	forladt
-5.1682487	somre
-4.984556	forekomme
-4.9913774	unger
-5.2093935	omkommer
-5.2185755	kolonierne
-5.434486	ubehageligt
-4.774432	koloni
-5.1737933	aggressive
-5.3773847	ejendommelig
-5.038788	foretager
-5.4219546	dyk
-4.4879084	fuldt
-4.9973764	taber
-4.8966355	bytte
-5.075018	flygter
-5.3751607	havs
-4.069792	hvorefter
-5.4579954	opsamle
-5.231925	fisken
-5.273749	hjejle
-5.412184	fjeldene
-5.2755084	anbringes
-5.138313	tørt
-4.9473925	græs
-5.370747	strå
-4.921663	måler
-4.339143	35
-5.403811	klækkes
-4.282027	ét
-4.7618237	tørre
-5.254009	lyng
-4.7409897	tyder
-5.2990584	tilbringer
-4.8602495	ravn
-4.7230816	speciel
-5.3299136	plettet
-4.5983033	hoved
-4.853191	vinger
-5.2728715	bug
-4.992754	observeret
-4.3797746	1902
-4.249201	efteråret
-3.9260325	dels
-4.4148955	hidtil
-4.1109343	1948
-3.9203527	tidspunkt
-5.367466	ravnen
-5.2667804	usandsynligt
-5.203378	naturhistorisk
-4.0019255	lavet
-4.1579304	træk
-4.9747424	kyster
-5.3567047	gås
-4.9055705	menneskelig
-4.483759	konkurrence
-4.2746615	størrelse
-4.719881	grå
-4.996912	ryg
-4.4727902	senest
-4.489637	lette
-5.0722485	hopper
-5.330914	bølgerne
-4.083399	tager
-5.4513364	smådyr
-4.307648	vandet
-5.270251	bestande
-4.467683	århundreder
-4.123922	befolkning
-5.2925916	fanges
-5.193048	opholder
-4.547947	42
-4.6870594	medens
-4.375536	rejser
-4.9544907	måneden
-5.1540213	drastisk
-4.47824	rotten
-4.3942485	forekommer
-5.3113303	lunden
-4.724071	præg
-5.244876	kystnære
-4.0231934	sommeren
-4.490793	færøsk
-5.024211	tusinder
-4.314249	udelukkende
-4.7453895	1834
-5.3852587	ynglende
-5.2481747	hylder
-4.3676167	hensyn
-5.211671	annekteret
-4.878238	forsvinder
-5.1959743	omgående
-5.3990984	fjerdragt
-4.2963104	line
-4.6595225	tøj
-5.213196	fede
-4.4347887	ringe
-5.014436	vingerne
-5.3210115	blæst
-4.485614	fange
-4.907078	udbrød
-5.2109103	heldigvis
-5.2719965	konstaterede
-5.280831	lægerne
-4.842976	nutiden
-4.8336334	behandlet
-4.937969	kolonien
-3.8547735	periode
-4.6802897	trækker
-5.438317	atlanterhav
-3.9005733	storbritannien
-5.2263784	sydeuropa
-4.3971553	tilhører
-5.418265	underarten
-4.7315655	bl.a
-4.892601	sydligste
-4.6734033	syn
-4.80496	trussel
-5.1338363	lam
-4.960852	ride
-5.4434776	lom
-5.4434776	højereliggende
-5.322974	bygderne
-5.2514987	alsidig
-5.184385	kysterne
-4.6007204	besat
-5.1351104	sahara
-4.694399	årsagen
-5.119444	tilbagegang
-4.9913774	moser
-4.5896764	spredt
-5.215493	støt
-5.164136	jævnt
-5.4332166	yngle
-4.9131594	1940'erne
-5.307517	sandoy
-5.4434776	kunoy
-5.138313	hærgede
-5.3631296	slemt
-5.290761	plantager
-4.751414	ødelagde
-4.9224443	klarede
-5.0101075	stormen
-4.402319	ramt
-4.71138	overgang
-4.4503307	fredet
-5.199661	genoprettet
-4.920883	besøger
-4.892601	opleve
-5.191592	jage
-4.5826454	bort
-5.143486	jager
-4.5697837	søer
-5.374053	frodige
-4.9067	dale
-4.387236	imellem
-5.215493	stenene
-5.428175	ungen
-4.386211	fuld
-5.3967605	fordybning
-5.137029	perfekte
-4.574146	beskyttelse
-4.6504397	hænder
-4.577844	såret
-4.9823065	eventuelle
-4.73308	fjender
-5.42943	april-maj
-4.244825	grønland
-4.2283816	yngre
-5.4014482	vinterhalvåret
-5.414606	stær
-5.44089	hamre
-5.169628	bygder
-5.2093935	underart
-5.321992	skinnende
-4.866736	regner
-5.2667804	2500
-4.8545265	nordsiden
-4.988636	holmen
-4.212081	endvidere
-4.8377967	smalle
-5.1357493	vinge
-5.084568	fødder
-3.7846575	året
-5.2481747	fortjent
-4.030554	billeder
-3.8033035	norsk
-5.1724005	frimærker
-5.124396	650
-4.764534	kjeld
-4.886439	jensens
-5.2944293	faroe
-5.107305	ditte
-5.147407	nexø
-3.8488247	perioden
-4.2341943	handling
-4.2213206	afslutning
-4.2541246	og/eller
-4.378879	plot
-4.5792613	afsløres
-4.9025717	elskede
-5.256533	mormor
-4.682534	mellemtiden
-4.956178	streng
-5.3807416	derhjemme
-4.818906	søskende
-5.334939	stedfar
-5.4396014	længes
-4.8929663	stadigvæk
-4.965145	forestiller
-5.4319506	arresø
-5.17941	drømmer
-5.428175	dejligt
-4.739704	beskrive
-5.4219546	allermest
-4.764262	koret
-5.4566555	gråd
-4.5016384	kender
-4.061257	prins
-4.2627707	ender
-5.01347	pigerne
-4.5743213	tror
-4.649813	hvortil
-5.300924	læreren
-5.190141	17-årig
-4.436063	gård
-5.4553194	svigter
-4.005698	vist
-3.9052465	rundt
-5.075018	udnyttet
-5.358836	misbrugt
-4.48092	dør
-4.7553883	afsløringer
-4.950301	filmatiseret
-4.158671	1946
-4.665974	bjarne
-5.3807416	henning-jensen
-5.158039	titelrollen
-4.067165	optaget
-4.11178	statens
-5.435759	kulturkanon
-5.2185755	litteratursiden.dk
-5.00346	tesla
-4.606727	symbol
-4.1006165	t
-5.257378	afledte
-5.239974	magnetisk
-5.0496573	enheden
-5.256533	nikola
-4.924404	måles
-5.305623	flux
-5.4073796	gauss
-4.9507184	104
-5.1493807	fremkommer
-4.053891	øvrige
-5.257378	dét
-5.0651298	feltet
-5.3369656	ledning
-5.3773847	hvorigennem
-4.931533	newton
-4.2630277	gælder
-4.025964	n
-4.637872	⋅
-3.2953253	{
-3.940016	\displaystyle
-5.136389	\mathrm
-3.2946522	}
-4.429478	\frac
-4.85721	\cdot
-4.6280336	praktisk
-5.22168	henvises
-5.3410473	dagligdags
-5.2711225	mt
-5.180117	magnetfelt
-5.448701	lægevidenskabelige
-4.7006893	felt
-5.2481747	kraftigste
-4.497944	opnået
-5.053342	laboratorium
-4.3940167	45
-5.4097753	coruña
-4.4620924	provins
-4.5159698	nordvestlige
-4.0467	spanien
-4.7749887	atlanterhavet
-4.655063	provinser
-4.875773	autonome
-5.2109103	galicien
-4.2442503	provinsen
-5.2685122	atlanten
-4.0125732	km²
-5.239974	1,1
-4.298815	hovedstaden
-4.758058	96
-4.9101076	webside
-5.1312985	drengenavn
-5.207128	keltisk
-4.388378	egentlige
-5.1737933	uvist
-5.0700455	keltiske
-5.4513364	sprogforskere
-5.066762	klippe
-4.609572	bjerg
-4.9007077	nobel
-4.9287467	afhængigt
-5.403811	dialekten
-4.6820846	pågældende
-4.345518	knyttet
-5.21396	værdighed
-4.5618706	ære
-5.3210115	magtfuld
-4.6696725	irsk
-4.448095	kæmpede
-4.6983485	erobre
-5.051233	sejrede
-3.8144426	slaget
-4.773876	ihjel
-4.5405803	mytologi
-4.373543	sønner
-3.8119187	medlemmer
-4.675834	fortællinger
-4.534456	brødre
-4.6440077	danskere
-4.0892153	indflydelse
-3.4096816	film
-4.409221	medier
-4.2697616	generelt
-4.6205544	gives
-4.4158688	sjældent
-4.768905	guder
-4.97651	helte
-4.1596823	morten
-4.531903	politikens
-5.3955965	håndbøger
-5.0711455	cohen
-4.650231	cykelrytter
-4.4393935	johnson
-4.746431	forsanger
-4.6221185	australske
-5.240787	ac/dc
-4.674065	kennedy
-5.1675606	laudrup
-5.428175	håndboldtræner
-4.399612	may
-4.332759	musiker
-4.584438	queen
-4.6888824	mikkelsen
-3.7337472	nielsen
-4.743572	bokser
-5.276391	palma
-5.0828676	sandberg
-5.42943	rocker
-4.848548	bryan
-5.17941	junior-vm
-4.373653	henvise
-5.313249	sportsbegivenheder
-4.948221	brune
-4.8622875	centimeter
-4.7602057	vejer
-5.2817245	kilogram
-4.3543077	øvrigt
-4.8010983	nært
-4.8355503	beslægtet
-4.8857193	øjnene
-4.816448	dybe
-4.603151	lighed
-5.3751607	tundra
-4.8882422	opnås
-4.4131975	sæsoner
-4.4414554	primære
-4.8207583	herudover
-4.6990495	tages
-4.9904613	mus
-4.81553	alderen
-5.1730967	gentaget
-5.406187	sekunders
-5.100771	kald
-5.4539876	hannens
-4.773876	truet
-4.5785522	dårligt
-4.761014	stede
-4.758058	individer
-4.843628	sydpå
-4.761014	skagen
-5.30186	invasioner
-4.5887685	drejer
-4.3139596	seneste
-4.390441	150
-4.4664493	flest
-5.4073796	1999/2000
-4.8442807	invasionen
-4.0864115	mulighed
-5.1675606	zoologisk
-4.876476	grønlandsk
-4.1105123	historien
-4.4716806	menes
-5.1668735	grebet
-4.6727424	forsvare
-5.2728715	fødderne
-5.180117	stive
-4.4255996	forsvar
-5.389823	ræve
-5.3796196	hedwig
-4.49545	fremtrædende
-5.212433	historierne
-4.613586	potter
-4.5287323	klaus
-5.019785	malling
-4.1905313	olsen
-5.047566	122
-4.6653247	dk
-4.734346	nordafrika
-4.859234	gads
-3.9867446	forlag
-3.8941145	beskrivelse
-5.1145477	forenings
-4.999239	fugleognatur.dk
-5.368557	skærgård
-4.5296807	betegner
-4.984556	omgivende
-4.549601	tilknytning
-4.577137	kyst
-4.882854	beskytter
-4.477257	hårdt
-4.796978	vejr
-5.1661873	grov
-4.2390313	sø
-5.332922	øhav
-3.6745372	norge
-4.092385	finland
-4.7186565	kroatien
-4.5812173	chile
-4.539122	sydøstlige
-4.846902	alaska
-4.475996	bornholm
-4.224915	foruden
-5.084568	beboede
-5.322974	christiansø
-5.164136	østligste
-5.2711225	ø.
-3.8249366	sprog
-4.083172	nordisk
-4.8423257	familjebok
-5.207882	uggleupplagan
-4.1712465	1917
-4.8374753	sp.
-5.3818665	1346
-4.5244884	opslag
-4.163208	salmonsens
-4.16464	konversationsleksikon
-5.3556433	xxi
-4.25337	1926
-5.434486	afrikamesterskabet
-5.012988	kristiansand
-4.7154884	forveksle
-5.4396014	kristiansund
-4.2088175	oprindelig
-5.3631296	vest-agder
-4.5586433	fylke
-4.6723027	længst
-4.9055705	forveksles
-5.2498336	1641
-3.7962866	kong
-5.0783644	danmark-norge
-5.394436	femtestørste
-5.1332006	hurtigst
-4.5955315	voksende
-4.3255763	iv
-5.0862756	dokumenteret
-4.022651	kongen
-5.1894174	1630
-5.1822457	spiste
-5.0640445	middag
-5.104323	boende
-5.0444474	odde
-5.057058	udløbet
-4.620945	deraf
-4.1976943	fandtes
-4.8320427	købstad
-5.245698	skien
-4.780594	stavanger
-5.334939	grim
-4.4607396	tilhørte
-5.3556433	krongods
-5.0602684	egnede
-4.942041	udmærket
-5.2817245	anlæggelse
-3.4797382	ny
-5.386395	bymæssig
-4.751414	gader
-5.289849	ideelle
-4.852192	havne
-5.328915	sejlbar
-5.340023	elv
-4.507314	medvirkende
-4.634635	årsag
-5.1351104	grundlæggelse
-4.2683716	udviklingen
-4.510029	havnen
-4.018046	vigtigste
-5.2531705	befæstninger
-5.2925916	1555
-5.2590723	1635
-4.924404	ordrer
-4.5317435	flytte
-4.3521986	bygge
-5.3762712	kongsgård
-5.1109114	befæstede
-4.4664493	færdig
-5.2109103	1642
-4.7094603	indbyggerne
-4.9978414	beordret
-4.495889	diverse
-3.9329882	kongelige
-4.985008	privilegier
-5.372948	påbud
-4.8475595	nødvendig
-5.4460816	forudsætningerne
-4.4215083	udvikle
-5.382994	bysamfund
-4.318024	anlagt
-4.2487035	1800-tallet
-5.196709	1666
-4.9544907	1682
-4.218683	besluttede
-5.448701	bispesædet
-4.9814095	flyttes
-5.270251	bispedømmet
-4.4318724	ændrede
-4.2526164	stift
-5.4244323	christiansholm
-4.8094583	fæstning
-4.981858	batteri
-5.124396	1734
-4.6227064	oplevede
-5.342074	333
-4.3986745	ødelagt
-4.922836	branden
-4.5855165	fulgt
-4.521837	1700-tallet
-5.0949144	uafhængighedskrig
-5.382994	værfter
-4.5004525	varede
-4.568224	1814
-5.4014482	adskillelsen
-4.9800677	sank
-5.328915	folketallet
-4.8109684	økonomien
-4.983655	dårligere
-5.286219	1830'erne
-4.264057	angrebet
-5.394436	flådestyrke
-5.337982	byplan
-4.94327	godkendte
-4.7822895	000
-4.3355846	300
-4.977841	nærmede
-4.6603775	udvidelse
-4.9751835	grænserne
-5.0920157	280
-4.202512	1921
-5.208637	tillagt
-4.2217097	lund
-5.1560254	tilhørt
-5.2416015	omliggende
-5.4434776	storkommune
-4.493407	indbyggertal
-4.3311524	havn
-4.330352	lufthavn
-5.190141	færgeforbindelse
-5.164819	hirtshals
-3.9436553	e
-4.5831823	39
-4.8771796	rv
-4.9997063	varieret
-5.3762712	næringsliv
-4.3582363	norges
-5.328915	turistattraktioner
-4.6734033	smukke
-5.434486	rejsemål
-4.7323217	turister
-5.0372567	ind-
-5.1212945	udland
-4.2814007	universitetet
-5.447389	agder
-4.992754	campus
-4.9224443	zoo
-5.367466	forlystelsespark
-5.1717057	næst
-5.3762712	attraktion
-5.1127257	blomstrende
-5.3200336	kulturliv
-4.39926	koncerter
-5.1627736	festivaler
-4.697649	kunstmuseum
-4.128109	åbnede
-4.949468	kilden
-5.180117	teater-
-4.6955566	næststørste
-5.1730967	kulturhus
-5.382994	operahuset
-5.0449657	unik
-4.4743204	beliggenhed
-4.8326783	udendørs
-5.4002714	verdensklasse
-4.417455	repræsenteret
-5.437036	tippeligaen
-4.6419525	ik
-4.456439	start
-4.506113	hjemmebane
-4.48906	arena
-5.239974	arkivet
-4.584079	hovedkvarter
-5.1019516	stampe
-5.0470448	kronprinsesse
-3.7839463	henrik
-5.4073796	wergeland
-4.8010983	camilla
-5.368557	collett
-4.3390408	søster
-4.898482	katrine
-4.5282583	håndboldspiller
-5.1151567	kristine
-4.6413383	olympisk
-4.339143	mester
-5.1661873	spydkast
-5.4396014	trollhättan
-4.1627316	polen
-4.543185	hjørring
-5.103729	bangladesh
-5.142836	orléans
-5.129405	münster
-4.664244	domkirke
-5.2853165	sørlandsbanen
-4.714034	kommunes
-5.331917	dyre-
-5.138956	ble
-3.8385823	«
-3.826721	»
-4.694399	teknologi
-4.6832104	videnskab
-4.6565447	løse
-5.235931	industrielt
-3.7314994	mål
-4.56667	øje
-4.423487	--
-4.5694366	mennesket
-5.124396	genskabe
-4.17	såvel
-5.118829	materielle
-4.389752	elementer
-4.519048	teknik
-4.342627	organisation
-4.798739	produkt
-5.038788	astronomi
-4.92835	hjul
-5.4306884	kile
-4.98546	gear
-5.4460816	kvægavl
-5.2093935	madlavning
-5.136389	skriftsprog
-5.291675	skrue
-4.2286983	våben
-4.9311337	værktøj
-5.276391	fundamentale
-5.2826195	kompas
-4.9694815	ur
-5.3210115	gps
-5.163454	videnskaber
-4.6421576	beskæftiger
-4.853524	organismer
-5.382994	bioteknologi
-5.4396014	akustik
-5.2633376	analog
-4.8407025	optagelse
-4.44954	digital
-5.2224593	datalogi
-4.1723576	uddannelse
-5.306569	fundamental
-4.342216	modstand
-5.393278	spole
-5.4049973	kondensator
-4.2918935	energi
-5.0640445	belysning
-5.027187	elektronik
-5.3875346	diode
-5.286219	transistor
-5.239974	integrerede
-4.741247	kredsløb
-5.224807	ic
-4.9699173	very
-5.0972476	large
-4.9945974	integration
-5.007246	affald
-5.4073796	rensningsanlæg
-5.007722	vedligeholdelse
-5.402628	fabrikation
-5.0408373	biologi
-5.45266	nanoteknologi
-5.084568	lægemidler
-4.365985	transport
-5.082302	telefon
-4.799622	television
-5.4269238	undersøisk
-5.2375436	kabel
-3.5292597	internet
-5.3642097	fission
-4.7984447	fusion
-5.392123	antistof
-5.147407	atomvåben
-4.8475595	biologiske
-4.2896104	video
-4.39506	filosofi
-4.6199694	oliver
-5.244055	twist
-5.334939	dickens
-3.98879	udkom
-4.861267	drengen
-4.1677246	fortæller
-3.5961838	london
-4.3504143	kritik
-5.4219546	uhyggelige
-4.463585	udgaver
-4.36729	indspillet
-4.5248013	versioner
-4.7490463	tv-serier
-5.104323	musicalen
-4.624475	volkswagen
-4.5598297	golf
-4.715003	afløste
-4.5677056	dobbelt
-4.9074554	introduktion
-4.1973996	valg
-5.1655025	motorerne
-5.4513364	1.4
-4.105536	hk
-4.355154	90
-5.4049973	1.6
-4.8911433	115
-5.2263784	tdi
-4.8502007	105
-5.1376705	2.0
-4.7702804	140
-5.4553194	skivebremser
-5.4219546	servostyring
-4.6360483	elektronisk
-5.2853165	esp
-5.2711225	abs
-5.4002714	airbags
-4.576079	elektriske
-5.374053	sidespejle
-5.3620524	el-ruder
-4.4044495	standard
-4.412351	udstyret
-5.0744624	bosch
-4.1882176	udviklede
-5.4097753	controller
-4.8853602	area
-4.573095	network
-4.579616	introduceret
-5.289849	jahre
-4.5677056	gratis
-5.2935095	klimaanlæg
-5.1894174	tilbuddet
-5.0413513	gearkasse
-5.4097753	merpris
-5.367466	gti
-4.3268647	programmet
-5.0382767	udvides
-4.8588963	102
-4.439136	starter
-5.068401	147
-4.326369	kw
-5.2728715	modelår
-4.9945974	gennemføres
-5.44089	instrumentbrættet
-5.412184	højttalere
-5.1357493	adskille
-4.949468	speed
-5.1553564	introduceres
-4.714034	orange
-5.188695	gt
-5.3410473	turbolader
-5.4231915	kompressor
-4.7908697	125
-4.8768277	170
-5.2633376	goal
-5.418265	specialmodel
-5.2416015	standardudstyr
-5.3955965	tågeforlygter
-5.134473	spejl
-5.148064	€
-4.590404	tilbyder
-5.437036	copper
-5.366378	rabbit
-4.9295406	103
-3.9918075	samarbejde
-4.934739	afløser
-4.535578	udstyr
-4.6091914	vises
-5.1614156	geneve
-4.4068284	motor
-4.292443	show
-3.9841676	united
-5.296275	alufælge
-5.1587124	bold
-5.3390017	nike
-4.8528576	m.v.
-5.4231915	bestilles
-4.4351707	edition
-4.8377967	sideløbende
-4.8070536	atlanta
-5.3084674	ruder
-5.1737933	forestående
-5.333929	bestille
-4.671205	fabrikken
-5.0984187	individuelt
-5.066762	introduktionen
-4.7556543	introducerede
-4.417822	generation
-5.368557	sloganet
-5.291675	udvendigt
-5.2375436	kabinen
-5.374053	kølergrill
-4.7466917	kant
-3.9810686	17
-5.239974	tommer
-5.4231915	undervogn
-5.086846	2,0
-4.417455	indsats
-5.164819	benzinmotor
-5.295351	indsprøjtning
-4.48092	effekt
-5.1091046	ekstraudstyr
-5.368557	rattet
-5.1351104	muliggør
-4.7201266	jubilæum
-4.267505	design
-5.2667804	udvendige
-5.372948	baglygter
-4.852192	detroit
-4.4079037	bilen
-4.8276196	adskilte
-4.853191	tilpasset
-4.9279537	look
-5.2531705	rat
-4.466039	klassisk
-4.7908697	motoren
-5.1357493	169
-5.014436	230
-4.4683695	nm
-5.3785005	tophastighed
-5.2391624	245
-4.584079	km/t
-4.1460557	0
-5.4579954	6,8
-4.6018405	sekunder
-4.530473	hhv.
-4.7228346	audi
-5.1758914	195
-5.246522	265
-4.587682	specielle
-5.353528	kofangere
-5.107904	bilens
-5.0811734	dieselmotor
-4.445088	teknisk
-4.872275	identisk
-5.0149193	effekten
-4.7763834	68
-5.2844157	slagvolume
-5.1737933	1,9
-4.613586	liter
-5.2523336	drejningsmoment
-5.0862756	163
-4.9987726	polo
-5.147407	passat
-5.3482842	fabrikkens
-5.075574	4,5
-5.402628	0,6
-5.2944293	315
-5.354584	sænkning
-4.977397	forbedringer
-4.9841056	190
-4.186921	model
-4.027654	serien
-5.178704	184
-4.6227064	250
-5.089136	320
-4.5292063	overført
-5.2026324	6,5
-5.4434776	6,2
-4.4388795	talrige
-4.6112876	funktioner
-5.346204	345
-4.9067	forbedrede
-5.2935095	1590
-4.357703	kg
-4.2743096	sport
-4.802283	nederste
-3.97401	arbejder
-4.6666245	hjælper
-5.016373	midterste
-4.996912	240
-4.960425	220
-4.9582963	bmw
-5.257378	lancia
-4.9251904	delta
-4.87402	hidtidige
-4.8136997	hvormed
-5.102543	optisk
-5.2367363	kombineres
-4.7211094	motorer
-5.005822	udefra
-4.564435	modeller
-5.4500165	kølergrillen
-4.9201045	forreste
-4.619775	anderledes
-4.2100286	udført
-5.417042	bagpå
-4.8052583	komplet
-5.077805	realiteten
-5.2271667	individual
-5.1573668	læder
-4.7213554	varianter
-4.6948614	fås
-5.394436	udstyres
-4.1385303	ekstra
-5.4460816	benzin-
-4.732827	undtagen
-4.760475	59
-4.1075077	uddybende
-4.740732	plus
-5.367466	kabine
-4.5425324	betydeligt
-4.323504	fører
-5.177295	tiltænkt
-4.782573	monteret
-4.489637	pladsen
-5.4073796	jetta
-5.3909717	bagagerummet
-4.965577	rumme
-5.4097753	505
-5.22168	1550
-5.394436	udstyrsvarianter
-5.0885625	1,4
-4.977397	1,6
-5.417042	modelåret
-5.014436	118
-4.7978578	160
-5.289849	specifikationer
-5.2498336	benzinmotorer
-5.2676454	2,0-liters
-5.2728715	vw
-4.671205	euro
-5.3785005	ncap
-4.904819	cars
-4.841027	crash
-4.733586	test
-5.012026	safety
-5.2295394	rating
-3.905096	pdf
-5.273749	2,7
-5.1312985	mb
-3.437999	[
-3.427214	]
-4.0522532	liste
-5.29999	personbiler
-5.025201	benzin
-5.3390017	technische
-5.4579954	daten
-5.220902	automobil
-5.1689377	revue
-4.704697	katalog
-3.8887622	angreb
-4.6569686	rettet
-5.215493	fjendtlig
-4.9743013	kode
-5.1157665	udnytter
-5.195241	input
-5.4434776	renses
-5.105513	sætninger
-4.413561	websted
-5.12006	hjemmesider
-5.3431025	rettes
-5.2481747	applikationer
-5.374053	operationelle
-5.1157665	miljøer
-4.8602495	bemærket
-5.0862756	gennemsnitligt
-4.8307743	71
-5.0862756	timen
-4.3775387	niveau
-4.931533	oplevet
-4.9595723	tilskrives
-4.833315	83
-4.754856	succesfulde
-4.728052	brud
-4.561019	eksisterer
-4.9668746	simpel
-5.196709	hentes
-5.4219546	variabler
-4.724071	defineret
-5.322974	php
-5.3259344	databasen
-4.8955317	foretages
-5.0261927	vha
-5.210151	select
-4.8195224	where
-4.7593994	normal
-5.3410473	returnere
-4.040652	givet
-5.051233	tabellen
-4.740732	forsøge
-4.9890914	slette
-5.314212	tabeller
-5.357769	databaser
-4.862628	offer
-4.084931	visse
-4.6960206	aktivt
-4.544166	repræsenterer
-5.027685	begrænse
-4.3975053	vigtigt
-4.267505	forbundet
-4.4831896	rettigheder
-5.323959	eksemplet
-4.841027	behøver
-5.437036	reflekteres
-4.9051943	numbers
-5.42943	oldengelsk
-5.262481	wessex
-5.1593866	angelsaksiske
-5.2871237	kongedømmer
-5.0256963	vikingerne
-5.1332006	helgen
-4.4494085	katolske
-5.330914	anglikanske
-4.2494497	kristne
-4.7911587	kirkes
-4.212462	landsbyen
-5.4231915	oxfordshire
-4.5325394	yngste
-5.3259344	krøniker
-4.615703	leo
-4.9055705	sigende
-4.98546	udpegede
-4.733839	fremtidige
-5.0105867	påstand
-3.6693535	gjorde
-4.6219225	tronen
-5.331917	brors
-4.0594306	bror
-4.9595723	arving
-4.6569686	præcis
-5.0337057	udtrykt
-5.1351104	omdiskuteret
-4.018143	live
-4.4989753	brev
-4.5328584	udpeget
-5.014436	konsul
-4.1944637	titel
-5.3990984	utilsigtet
-5.418265	forvirringen
-4.454571	teori
-4.4488826	besøg
-5.444778	pilgrimsrejse
-5.107305	hjemkomsten
-4.810666	afsat
-5.205624	truende
-4.5271554	borgerkrig
-4.538314	resulterede
-5.305623	stormænd
-4.960852	samledes
-5.1376705	kompromis
-5.304679	grevskaber
-4.862969	kontrolleret
-5.1507015	regeret
-5.4539876	890
-5.0586605	høvding
-5.410978	ottar
-5.438317	hålogaland
-4.3054705	dennes
-4.7593994	beretning
-4.780594	regerende
-4.367508	nævnt
-5.0105867	kilderne
-5.358836	asser
-5.0586605	knytter
-4.475716	anerkendt
-5.1206765	tronfølger
-5.08971	monark
-4.656121	godkendt
-4.136413	sikre
-5.216262	uoverensstemmelser
-5.2755084	arvefølgen
-4.73308	falde
-3.8073947	kamp
-5.078925	velkendt
-4.7030425	krone
-4.491228	efterfølger
-4.673183	kronprins
-5.245698	hærfører
-4.869843	germanske
-4.7656226	svenskerne
-5.160062	frankerne
-5.0694966	mislykket
-5.3909717	invaderende
-5.1587124	vikinger
-5.0449657	hedenske
-3.9356003	hær
-5.4158225	mercia
-5.352474	tribut
-5.1351104	undlod
-5.4231915	870
-4.7433133	danskerne
-4.9814095	udkæmpet
-4.2505307	slag
-5.3875346	heldigt
-5.0408373	udfald
-4.108827	fulgte
-5.106707	reading
-4.7063584	alvorligt
-4.342627	nederlag
-4.060289	lykkedes
-5.212433	styrkerne
-5.3410473	berkshire
-5.303737	downs
-4.5315847	sejre
-4.635442	besejret
-5.45266	merton
-4.1458597	dræbt
-3.9136717	yderligere
-5.3493276	kamphandlinger
-5.3390017	mindreårige
-4.0873823	skete
-4.6225104	brødrene
-4.722341	enige
-4.642568	overlevede
-3.872323	krigen
-5.094333	arvinger
-4.6582437	lyset
-5.448701	nevøer
-3.8911572	unge
-5.0640445	spændinger
-4.6090016	følte
-4.9003363	planlagde
-4.9287467	begravelse
-4.230443	besejrede
-3.8948479	engelske
-4.3130937	ukendt
-4.9465647	nederlaget
-5.3967605	forhåbninger
-4.5880437	drive
-4.781441	slutte
-4.6843386	vilkår
-5.319058	givetvis
-5.2719965	gengiver
-5.2826195	villige
-4.486616	forlade
-5.2728715	vikingernes
-4.694399	besættelse
-5.0857058	udgravet
-5.065673	waterloo
-4.7348533	bridge
-5.353528	fundene
-5.2871237	fredsslutningen
-4.724815	besatte
-5.107904	uheldige
-5.291675	dorset
-5.4539876	belejre
-5.2048745	forhandlede
-5.1376705	gidsler
-5.102543	løfter
-5.3807416	svor
-5.036748	hellig
-4.440681	ring
-5.402628	dyrkelse
-4.534776	thor
-4.2420406	alligevel
-5.250665	fredsaftalen
-5.1675606	myrdede
-4.534936	flygtede
-5.3751607	exeter
-5.146751	belejrede
-4.6409287	nødt
-4.7811584	boet
-5.1163774	julen
-4.550596	drog
-5.4513364	sump
-5.290761	påske
-5.370747	marsken
-5.220125	somerset
-4.5949793	derfra
-5.370747	kæmpende
-3.9878345	imod
-4.806454	fjenden
-5.0949144	stifte
-5.1682487	modstandsbevægelse
-5.438317	mobilisere
-5.4049973	militser
-5.3773847	wiltshire
-5.075018	hampshire
-4.9116306	fortet
-4.945739	århundredes
-5.027187	flugten
-5.4332166	husly
-5.128776	stege
-5.0178323	ilden
-5.0908613	tænkte
-5.389823	brødet
-5.306569	konen
-5.2925916	undskyldning
-5.2490034	forklædt
-4.3486366	præst
-4.938781	lejr
-4.5774903	historier
-4.6184134	kristen
-4.502976	situation
-4.7963924	befandt
-5.025201	øde
-3.8375518	britiske
-4.695325	bernard
-5.2531705	omkr
-4.6186075	erobret
-5.370747	undtagelsen
-4.9085903	modangreb
-4.313767	patrick
-4.2246013	oxford
-4.529839	dictionary
-3.7204552	press
-4.956178	licens
-5.163454	gutenberg
-4.403975	projektet
-4.764806	bemærk
-4.8304577	elektroniske
-4.138659	samling
-5.0256963	pastor
-3.8610764	james
-3.7049193	kilde
-4.1485496	tekst
-5.4566555	abels
-4.3733215	great
-4.094646	war
-4.745129	culture
-5.4014482	anglo-saxon
-4.9707904	årstal
-5.342074	energi-
-4.4951572	1850
-4.564435	1859
-4.156185	henry
-5.29999	woodward
-5.2790494	lampe
-4.6692357	stanley
-4.4351707	1891
-5.447389	elværk
-3.896613	odense
-4.4081426	1892
-5.28803	gothersgade
-5.245698	tændt
-4.3198757	1907
-5.3113303	vedtages
-5.224807	skovshoved
-5.3967605	importen
-4.895164	kul
-4.8821406	besked
-5.1157665	skære
-5.2990584	vandkraftværk
-4.224366	1925
-4.764806	aabenraa
-5.0806103	sønderjyllands
-4.1954155	23
-5.1744914	indføres
-5.235127	tilslutte
-4.8052583	kunder
-5.313249	nægte
-4.8465734	tilslutning
-4.973421	styrken
-4.8407025	mv
-4.0979137	1942
-4.8266773	forbud
-4.493698	salg
-5.185817	varmere
-4.8768277	afskaffet
-4.1727057	1955
-5.0874176	oprettes
-4.1308804	1958
-5.45266	risø
-5.142187	søgen
-5.2817245	nedlægges
-5.4566555	energikilder
-4.2149854	folketinget
-5.3567047	vedtager
-5.177999	reduceres
-4.841351	beslutter
-5.4049973	atomkraft
-5.3642097	udgå
-5.444778	pålægges
-5.3631296	revolutionerende
-5.216262	mht.
-3.9780357	regering
-4.7368894	endeligt
-4.8254247	lukke
-5.2498336	rense
-5.367466	vestas
-5.061883	mw
-4.3633866	steen
-4.191693	b.
-5.448701	böcher
-5.417042	elektrificering
-4.614932	47
-4.027953	1944
-5.103729	egyptisk
-4.5812173	opstillet
-5.305623	vogter
-5.3909717	pyramider
-5.4319506	giza
-4.803173	væsen
-5.1127257	straffe
-4.1987276	befolkningen
-5.303737	theben
-4.9465647	guderne
-5.3609776	gåde
-4.148089	dyr
-5.4460816	ødipus
-5.0154033	indså
-5.0874176	svaret
-5.382994	spæd
-4.901825	voksen
-5.3567047	stok
-4.767808	løst
-4.7485223	kastede
-4.74435	dannelsen
-4.7315655	dna
-4.3078384	betegnelse
-5.276391	gravide
-4.925584	indtage
-4.676056	menneskelige
-4.634232	krop
-5.2432356	omsætningen
-5.2063756	aminosyrer
-5.1894174	rna
-5.3773847	cellens
-5.317113	blodlegemer
-4.825112	spise
-4.2791724	grønne
-5.0183196	ost
-4.80169	fødevarer
-5.335951	doser
-4.661234	mangel
-4.925584	depression
-5.3567047	tungen
-4.985008	anbefalede
-5.332922	dosis
-4.9725423	dtu
-4.920883	læs
-5.4133935	medicin.dk
-5.3841248	paprika
-4.2715926	slægt
-5.330914	urteagtige
-4.453374	argentina
-5.435759	busket
-5.244055	5-tallige
-4.933534	tydelig
-5.447389	kegle
-5.382994	støvdragere
-5.1872535	sorter
-5.0586605	hule
-5.090286	bær
-5.024211	planterne
-4.855196	dyrkes
-4.725063	sælges
-5.002989	frisk
-5.3482842	peber
-5.2633376	underfamilie
-5.45266	menneskeaber
-5.169628	underarter
-5.3493276	regnskove
-5.3493276	gibbon
-4.0864115	kunst
-4.573095	kulturelle
-4.9108686	symboler
-5.242418	nedsættende
-5.056525	vurdere
-4.798739	kunstnerisk
-4.466997	lav
-5.245698	æstetisk
-4.660805	kvalitet
-5.240787	låneord
-5.3785005	jiddisch
-4.8061547	bevidst
-5.1808257	ironisk
-5.3762712	formsprog
-4.6380754	genstande
-5.367466	boligen
-4.8257375	omgivelser
-4.3620934	fokus
-4.8824973	fremstår
-4.82014	helhed
-4.6180253	individuelle
-4.508368	navnlig
-4.553931	theodor
-4.9507184	betragtede
-5.17941	decideret
-4.921663	farlig
-4.9059467	asger
-5.0885625	skelner
-4.996912	illustrationer
-5.0700455	kompliceret
-4.342113	dækker
-4.1464486	kultur
-5.337982	nyskabende
-5.2375436	radikalt
-4.798739	voldsomt
-4.8257375	mode
-5.417042	boligblokke
-4.778905	gladsaxe
-5.105513	revy
-4.0374804	1964
-5.3410473	plat
-3.9441895	al
-4.182985	magt
-4.718901	dårlige
-4.4038563	silkeborg
-5.305623	gjern
-4.958721	them
-5.0874176	kjellerup
-4.3961062	konservative
-5.1546884	sammenslutningen
-5.12752	folkekirken
-5.259922	krak
-5.0937524	synlig
-5.140892	gylden
-4.633427	gyldne
-4.883569	hale
-5.1815352	tåle
-5.1675606	minus
-5.0862756	hanner
-4.0591626	enkelt
-5.0937524	hunner
-5.402628	trues
-4.665757	jagt
-4.6670585	skyld
-4.1103916	l
-5.079486	richardson
-4.9574475	iucn
-4.0427613	list
-5.235931	threatened
-4.822619	species
-5.0937524	bengt
-4.7984447	holst
-4.8839264	pattedyr
-5.0212555	gregorianske
-4.7719364	kalender
-4.8465734	78
-5.134473	skudår
-5.3094196	288
-4.56667	dagens
-4.778343	dødsfald
-4.6294255	sjette
-4.9729815	korstog
-5.0347176	erklærer
-4.578198	jerusalem
-5.3990984	1241
-5.1937776	kraków
-5.156696	mongolske
-5.4460816	1314
-4.7425375	jacques
-5.232723	stormester
-4.6483545	henrettet
-4.788852	brændt
-5.313249	bålet
-4.0107484	floden
-5.270251	seinen
-5.103729	clement
-4.4215083	philip
-4.857547	gæld
-4.7650776	ordenen
-4.714761	700
-4.937969	dømte
-5.2853165	uskyldige
-5.30186	vatikanet
-4.4218783	1848
-5.024211	rendsborg
-4.607863	slesvig-holsten
-4.8028765	demokratisk
-4.66446	forfatning
-4.4743204	forbund
-4.758326	milano
-4.461686	oprør
-4.5389605	østrigske
-4.085955	tropper
-4.1269174	ledelse
-3.943204	general
-4.1988754	joseph
-4.87402	express
-4.218219	company
-5.264196	grundlægges
-5.046524	buffalo
-4.2401676	1922
-5.394436	idømmes
-5.2755084	gandhi
-4.6071053	civil
-4.7440906	arbejdere
-4.9918356	afsluttes
-4.3079333	1931
-4.8492084	englænderne
-5.2853165	smider
-4.6010933	tons
-4.821998	bomber
-5.0662174	luftangreb
-4.5949793	hamborg
-4.1796494	1949
-4.719636	nato
-5.1031356	etableres
-4.6670585	nationer
-4.9453263	algeriet
-5.0885625	fredsaftale
-4.2381406	sovjetiske
-5.392123	kosmonaut
-5.2607737	aleksej
-4.555776	rummet
-5.1526904	canyon
-4.676056	rev
-4.9461517	fyrst
-5.372948	afsættes
-5.321992	afløses
-5.204126	ministerpræsident
-5.4194913	lon
-4.465356	premierminister
-4.7021	pakistan
-4.633427	ali
-5.438317	bhutto
-5.295351	dømmes
-4.6595225	mord
-4.855531	begået
-5.3796196	konstateres
-4.440681	fyn
-3.802472	universitet
-5.119444	indleder
-5.442182	festligheder
-4.329652	anledning
-4.67517	fødselsdag
-5.0382767	østtyskland
-4.689111	målt
-5.0716968	karup
-4.6350384	microsoft
-4.6491876	sender
-4.5103316	windows
-5.435759	3.1
-4.584617	markedet
-5.4434776	påbegynder
-4.642568	opførelsen
-4.986365	bosættelser
-4.9173903	protester
-5.0874176	omverdenen
-4.9116306	fogh
-4.0755396	rasmussen
-4.73081	vælges
-5.328915	gruppeformand
-3.9899762	venstre
-4.0428133	parti
-4.9371595	ambassade
-5.1049175	zimbabwe
-5.2582245	aktivister
-5.007246	kaster
-5.162094	maling
-4.605972	stig
-4.845262	protest
-4.770556	regeringens
-4.6787252	holdning
-5.388677	irakkrigen
-5.233523	1609
-5.1325655	1670
-4.7056456	1837
-5.4207215	grover
-4.95407	cleveland
-4.223505	1908
-4.6280336	1842
-5.28803	stéphane
-4.345725	1898
-4.656121	1844
-4.484614	nikolaj
-4.608242	1858
-4.6091914	rudolf
-5.066762	diesel
-4.924011	opfinder
-5.1533556	neville
-5.17941	chamberlain
-4.401493	1897
-5.0115457	sri
-4.9074554	indisk
-5.3210115	malmros
-4.719391	rené
-5.369651	clément
-5.2972007	fidel
-5.3200336	ramos
-5.434486	filippinsk
-4.1509256	e.
-4.175008	1936
-4.502381	kirsten
-5.1206765	bundgaard
-5.067854	willem
-5.220125	sydafrikansk
-5.1338363	nobels
-5.147407	fredspris
-5.0217466	kenny
-5.0700455	lynch
-4.7373996	ron
-5.264196	atkinson
-5.286219	pickett
-5.296275	evald
-5.2185755	landsformand
-5.310374	badmintonspiller
-4.8502007	ulla
-5.012507	koppel
-4.0563855	jan
-5.050182	monrad
-4.8449345	komiker
-4.505214	allan
-5.371846	ingemar
-5.3875346	alpin
-5.374053	skiløber
-5.273749	deborah
-4.9712276	dc
-5.2889385	madam
-4.165597	1957
-5.305623	christer
-4.772213	fysiker
-5.1865344	astronaut
-5.317113	luc
-4.1069093	1963
-4.816755	lotte
-4.624475	ulrik
